9 64
0 0.0 0.020270271226763725 0.0 0.020270271226763725 0.0 0.027027027681469917 0.006756756920367479 0.0 0.006756756920367479 0.006756756920367479 0.006756756920367479 0.03378378599882126 0.0 0.013513513840734959 0.04729729890823364 0.006756756920367479 0.0 0.013513513840734959 0.027027027681469917 0.0 0.0 0.006756756920367479 0.013513513840734959 0.0 0.0 0.0 0.0 0.0 0.054054055362939835 0.006756756920367479 0.013513513840734959 0.006756756920367479 0.0 0.06756757199764252 0.013513513840734959 0.0 0.0 0.04729729890823364 0.22972974181175232 0.020270271226763725 0.020270271226763725 0.013513513840734959 0.006756756920367479 0.0 0.0 0.054054055362939835 0.006756756920367479 0.0 0.06081081181764603 0.0 0.006756756920367479 0.006756756920367479 0.0 0.0 0.04054054245352745 0.0 0.006756756920367479 0.0 0.0 0.027027027681469917 0.0 0.006756756920367479 0.020270271226763725 0.006756756920367479 
0 0.0 0.01785714365541935 0.0059523810632526875 0.0 0.02380952425301075 0.0535714291036129 0.011904762126505375 0.0059523810632526875 0.02976190485060215 0.0059523810632526875 0.02976190485060215 0.0059523810632526875 0.0 0.0 0.011904762126505375 0.0357142873108387 0.0059523810632526875 0.011904762126505375 0.011904762126505375 0.011904762126505375 0.011904762126505375 0.0059523810632526875 0.01785714365541935 0.0 0.0059523810632526875 0.0 0.0 0.0 0.02380952425301075 0.0 0.0059523810632526875 0.0 0.0 0.065476194024086 0.01785714365541935 0.02976190485060215 0.0059523810632526875 0.0059523810632526875 0.1607142835855484 0.011904762126505375 0.01785714365541935 0.02380952425301075 0.0 0.0 0.0 0.0357142873108387 0.0059523810632526875 0.0059523810632526875 0.0416666679084301 0.0 0.011904762126505375 0.02380952425301075 0.011904762126505375 0.02380952425301075 0.02380952425301075 0.0 0.01785714365541935 0.0 0.011904762126505375 0.02380952425301075 0.0059523810632526875 0.011904762126505375 0.0357142873108387 0.01785714365541935 
0 0.0 0.013761467300355434 0.004587155766785145 0.004587155766785145 0.0 0.02293577790260315 0.0 0.004587155766785145 0.03669724613428116 0.0 0.004587155766785145 0.01834862306714058 0.01834862306714058 0.0 0.03669724613428116 0.01834862306714058 0.013761467300355434 0.013761467300355434 0.01834862306714058 0.00917431153357029 0.0 0.00917431153357029 0.01834862306714058 0.0 0.02752293460071087 0.0 0.0 0.02293577790260315 0.07339449226856232 0.02752293460071087 0.004587155766785145 0.013761467300355434 0.004587155766785145 0.0458715558052063 0.004587155766785145 0.0 0.0 0.004587155766785145 0.1055045798420906 0.00917431153357029 0.03211009129881859 0.05045871436595917 0.004587155766785145 0.004587155766785145 0.004587155766785145 0.01834862306714058 0.04128440096974373 0.004587155766785145 0.03211009129881859 0.0 0.01834862306714058 0.0 0.01834862306714058 0.01834862306714058 0.03669724613428116 0.004587155766785145 0.0 0.0 0.02293577790260315 0.00917431153357029 0.004587155766785145 0.01834862306714058 0.04128440096974373 0.004587155766785145 
0 0.0 0.007843137718737125 0.007843137718737125 0.0 0.011764707043766975 0.03529411926865578 0.003921568859368563 0.003921568859368563 0.03529411926865578 0.0 0.0 0.027450982481241226 0.04313725605607033 0.0 0.007843137718737125 0.011764707043766975 0.003921568859368563 0.01568627543747425 0.011764707043766975 0.0 0.003921568859368563 0.007843137718737125 0.05098039656877518 0.0 0.0 0.0 0.0 0.02352941408753395 0.0470588281750679 0.02352941408753395 0.007843137718737125 0.011764707043766975 0.003921568859368563 0.03921568766236305 0.0 0.003921568859368563 0.0 0.003921568859368563 0.0941176563501358 0.003921568859368563 0.011764707043766975 0.03921568766236305 0.0 0.0 0.003921568859368563 0.0 0.027450982481241226 0.0 0.0470588281750679 0.0 0.05098039656877518 0.007843137718737125 0.019607843831181526 0.027450982481241226 0.08627451211214066 0.0 0.003921568859368563 0.003921568859368563 0.0313725508749485 0.0313725508749485 0.0 0.019607843831181526 0.01568627543747425 0.019607843831181526 
0 0.01230769231915474 0.01230769231915474 0.009230769239366055 0.00615384615957737 0.0 0.05230769142508507 0.0 0.009230769239366055 0.02153846248984337 0.003076923079788685 0.01846153847873211 0.003076923079788685 0.03076923079788685 0.003076923079788685 0.02769230678677559 0.02769230678677559 0.00615384615957737 0.015384615398943424 0.0 0.0 0.015384615398943424 0.009230769239366055 0.02461538463830948 0.0 0.003076923079788685 0.003076923079788685 0.003076923079788685 0.01846153847873211 0.03999999910593033 0.02769230678677559 0.015384615398943424 0.009230769239366055 0.003076923079788685 0.03692307695746422 0.009230769239366055 0.015384615398943424 0.00615384615957737 0.0 0.06769230961799622 0.02461538463830948 0.003076923079788685 0.03384615480899811 0.009230769239366055 0.00615384615957737 0.009230769239366055 0.01230769231915474 0.02461538463830948 0.003076923079788685 0.05846153944730759 0.0 0.02769230678677559 0.00615384615957737 0.009230769239366055 0.009230769239366055 0.04923076927661896 0.003076923079788685 0.01230769231915474 0.01230769231915474 0.03076923079788685 0.01846153847873211 0.015384615398943424 0.015384615398943424 0.01846153847873211 0.02153846248984337 
0 0.01092896144837141 0.008196720853447914 0.04098360612988472 0.008196720853447914 0.0027322403620928526 0.04098360612988472 0.01092896144837141 0.0027322403620928526 0.032786883413791656 0.005464480724185705 0.01092896144837141 0.03551912307739258 0.032786883413791656 0.0 0.02185792289674282 0.02185792289674282 0.01092896144837141 0.027322404086589813 0.008196720853447914 0.0027322403620928526 0.032786883413791656 0.008196720853447914 0.024590162560343742 0.0 0.016393441706895828 0.0 0.0027322403620928526 0.030054643750190735 0.051912568509578705 0.027322404086589813 0.008196720853447914 0.013661202043294907 0.0 0.051912568509578705 0.0 0.005464480724185705 0.0027322403620928526 0.005464480724185705 0.02185792289674282 0.016393441706895828 0.0 0.04098360612988472 0.0027322403620928526 0.013661202043294907 0.005464480724185705 0.0027322403620928526 0.01092896144837141 0.0027322403620928526 0.06010928750038147 0.0027322403620928526 0.024590162560343742 0.013661202043294907 0.005464480724185705 0.030054643750190735 0.049180325120687485 0.0027322403620928526 0.0027322403620928526 0.005464480724185705 0.024590162560343742 0.0027322403620928526 0.008196720853447914 0.01092896144837141 0.01092896144837141 0.01092896144837141 
0 0.002421307610347867 0.004842615220695734 0.021791769191622734 0.004842615220695734 0.0 0.04358353838324547 0.009685230441391468 0.002421307610347867 0.04116223007440567 0.002421307610347867 0.016949152573943138 0.021791769191622734 0.02663438394665718 0.0 0.007263923063874245 0.012106537818908691 0.007263923063874245 0.021791769191622734 0.01452784612774849 0.0 0.021791769191622734 0.004842615220695734 0.04600484296679497 0.0 0.009685230441391468 0.002421307610347867 0.0 0.02905569225549698 0.033898305147886276 0.024213075637817383 0.016949152573943138 0.007263923063874245 0.0 0.050847459584474564 0.012106537818908691 0.002421307610347867 0.009685230441391468 0.0 0.02905569225549698 0.021791769191622734 0.0 0.02905569225549698 0.012106537818908691 0.016949152573943138 0.0 0.007263923063874245 0.012106537818908691 0.002421307610347867 0.04600484296679497 0.0 0.04358353838324547 0.016949152573943138 0.007263923063874245 0.024213075637817383 0.04358353838324547 0.002421307610347867 0.016949152573943138 0.019370460882782936 0.03874092176556587 0.009685230441391468 0.007263923063874245 0.036319613456726074 0.012106537818908691 0.012106537818908691 
0 0.0 0.002624671906232834 0.010498687624931335 0.0 0.0 0.07611548900604248 0.010498687624931335 0.005249343812465668 0.01312335953116417 0.002624671906232834 0.02099737524986267 0.028871390968561172 0.04724409431219101 0.0 0.018372703343629837 0.010498687624931335 0.005249343812465668 0.031496062874794006 0.007874015718698502 0.0 0.018372703343629837 0.007874015718698502 0.023622047156095505 0.0 0.005249343812465668 0.002624671906232834 0.0 0.03412073478102684 0.044619422405958176 0.018372703343629837 0.010498687624931335 0.02099737524986267 0.0 0.06036745384335518 0.007874015718698502 0.018372703343629837 0.01312335953116417 0.005249343812465668 0.03937007859349251 0.010498687624931335 0.002624671906232834 0.03412073478102684 0.005249343812465668 0.007874015718698502 0.002624671906232834 0.005249343812465668 0.015748031437397003 0.002624671906232834 0.03937007859349251 0.0 0.010498687624931335 0.015748031437397003 0.010498687624931335 0.018372703343629837 0.057742781937122345 0.0 0.015748031437397003 0.015748031437397003 0.03412073478102684 0.002624671906232834 0.005249343812465668 0.031496062874794006 0.01312335953116417 0.02099737524986267 
0 0.01277955248951912 0.01277955248951912 0.00638977624475956 0.0 0.00319488812237978 0.03833865746855736 0.00319488812237978 0.00958466436713934 0.015974439680576324 0.0 0.00319488812237978 0.015974439680576324 0.03194887936115265 0.00319488812237978 0.01277955248951912 0.028753992170095444 0.00958466436713934 0.022364217787981033 0.022364217787981033 0.0 0.015974439680576324 0.00958466436713934 0.03194887936115265 0.0 0.00958466436713934 0.0 0.00319488812237978 0.01916932873427868 0.03514377027750015 0.01277955248951912 0.00638977624475956 0.0 0.0 0.07667731493711472 0.01916932873427868 0.00319488812237978 0.00319488812237978 0.00638977624475956 0.0702875405550003 0.03194887936115265 0.00638977624475956 0.028753992170095444 0.0 0.00958466436713934 0.0 0.00638977624475956 0.01916932873427868 0.0 0.04153354465961456 0.00319488812237978 0.028753992170095444 0.00319488812237978 0.00638977624475956 0.022364217787981033 0.05431309714913368 0.0 0.00638977624475956 0.015974439680576324 0.04472843557596207 0.022364217787981033 0.00319488812237978 0.01916932873427868 0.01916932873427868 0.03194887936115265 
0 0.0037878789007663727 0.007575757801532745 0.0037878789007663727 0.0 0.0 0.049242425709962845 0.0037878789007663727 0.007575757801532745 0.022727273404598236 0.0 0.0 0.011363636702299118 0.03030303120613098 0.0 0.011363636702299118 0.02651515230536461 0.011363636702299118 0.018939394503831863 0.01515151560306549 0.0 0.007575757801532745 0.0 0.049242425709962845 0.0 0.0037878789007663727 0.0 0.0037878789007663727 0.01515151560306549 0.034090910106897354 0.011363636702299118 0.0037878789007663727 0.0 0.0 0.04545454680919647 0.01515151560306549 0.01515151560306549 0.0037878789007663727 0.01515151560306549 0.07196970283985138 0.01515151560306549 0.01515151560306549 0.03787878900766373 0.0 0.0037878789007663727 0.0 0.01515151560306549 0.02651515230536461 0.0 0.03030303120613098 0.0 0.018939394503831863 0.018939394503831863 0.007575757801532745 0.01515151560306549 0.08712121844291687 0.0037878789007663727 0.0037878789007663727 0.0037878789007663727 0.07196970283985138 0.05303030461072922 0.007575757801532745 0.011363636702299118 0.007575757801532745 0.02651515230536461 
0 0.004975124262273312 0.024875622242689133 0.009950248524546623 0.0 0.0 0.009950248524546623 0.0 0.014925372786819935 0.024875622242689133 0.0 0.0 0.03482586890459061 0.004975124262273312 0.004975124262273312 0.009950248524546623 0.0 0.0 0.009950248524546623 0.019900497049093246 0.0 0.009950248524546623 0.0 0.05472636595368385 0.004975124262273312 0.004975124262273312 0.0 0.004975124262273312 0.009950248524546623 0.024875622242689133 0.004975124262273312 0.004975124262273312 0.0 0.024875622242689133 0.05472636595368385 0.014925372786819935 0.004975124262273312 0.004975124262273312 0.049751244485378265 0.08457711338996887 0.014925372786819935 0.05970149114727974 0.08457711338996887 0.0 0.014925372786819935 0.0 0.004975124262273312 0.019900497049093246 0.004975124262273312 0.004975124262273312 0.0 0.019900497049093246 0.019900497049093246 0.009950248524546623 0.009950248524546623 0.0746268630027771 0.0 0.009950248524546623 0.0 0.03980099409818649 0.014925372786819935 0.0 0.019900497049093246 0.019900497049093246 0.014925372786819935 
0 0.0 0.013245033100247383 0.0 0.0 0.013245033100247383 0.046357616782188416 0.013245033100247383 0.0 0.0066225165501236916 0.0 0.0066225165501236916 0.026490066200494766 0.0066225165501236916 0.0 0.0066225165501236916 0.013245033100247383 0.013245033100247383 0.01986755058169365 0.0 0.0 0.013245033100247383 0.0 0.03311258181929588 0.0 0.01986755058169365 0.0 0.0 0.0 0.013245033100247383 0.0 0.0066225165501236916 0.0 0.0066225165501236916 0.026490066200494766 0.013245033100247383 0.0066225165501236916 0.0066225165501236916 0.0 0.11258278042078018 0.01986755058169365 0.11258278042078018 0.0397351011633873 0.0 0.013245033100247383 0.013245033100247383 0.0066225165501236916 0.026490066200494766 0.0 0.026490066200494766 0.0 0.01986755058169365 0.0 0.0397351011633873 0.0066225165501236916 0.08609271794557571 0.0 0.013245033100247383 0.01986755058169365 0.0 0.05298013240098953 0.0066225165501236916 0.013245033100247383 0.0066225165501236916 0.03311258181929588 
0 0.0 0.0416666679084301 0.0 0.008333333767950535 0.008333333767950535 0.05833333730697632 0.0 0.0 0.01666666753590107 0.0 0.0 0.0 0.02500000223517418 0.008333333767950535 0.008333333767950535 0.01666666753590107 0.0 0.03333333507180214 0.008333333767950535 0.008333333767950535 0.0 0.0 0.0 0.0 0.02500000223517418 0.0 0.0 0.0 0.0416666679084301 0.01666666753590107 0.01666666753590107 0.008333333767950535 0.0 0.06666667014360428 0.02500000223517418 0.008333333767950535 0.0 0.0 0.125 0.008333333767950535 0.03333333507180214 0.0416666679084301 0.008333333767950535 0.008333333767950535 0.0 0.02500000223517418 0.0 0.008333333767950535 0.01666666753590107 0.0 0.03333333507180214 0.008333333767950535 0.05000000447034836 0.01666666753590107 0.06666667014360428 0.0 0.0 0.0 0.0 0.02500000223517418 0.01666666753590107 0.02500000223517418 0.01666666753590107 0.01666666753590107 
0 0.0 0.0458715558052063 0.0 0.00917431153357029 0.03669724613428116 0.0458715558052063 0.0 0.0 0.0 0.0 0.0 0.05504586920142174 0.00917431153357029 0.0 0.02752293460071087 0.03669724613428116 0.02752293460071087 0.00917431153357029 0.01834862306714058 0.01834862306714058 0.0 0.0 0.00917431153357029 0.03669724613428116 0.0 0.0 0.0 0.0 0.11009173840284348 0.0 0.0 0.0 0.0 0.0458715558052063 0.0 0.0 0.01834862306714058 0.00917431153357029 0.16513760387897491 0.0 0.06422018259763718 0.00917431153357029 0.00917431153357029 0.0 0.0 0.02752293460071087 0.0 0.0 0.00917431153357029 0.0 0.0 0.0 0.03669724613428116 0.0 0.03669724613428116 0.0 0.0 0.01834862306714058 0.0 0.00917431153357029 0.0 0.00917431153357029 0.0 0.03669724613428116 
0 0.008849557489156723 0.008849557489156723 0.0 0.017699114978313446 0.0 0.008849557489156723 0.0 0.008849557489156723 0.0 0.0 0.0 0.017699114978313446 0.03539822995662689 0.0 0.02654867246747017 0.008849557489156723 0.0 0.008849557489156723 0.008849557489156723 0.0 0.0 0.008849557489156723 0.008849557489156723 0.0 0.017699114978313446 0.0 0.0 0.017699114978313446 0.044247787445783615 0.008849557489156723 0.0 0.0 0.008849557489156723 0.05309734493494034 0.044247787445783615 0.0 0.0 0.02654867246747017 0.2566371560096741 0.0 0.017699114978313446 0.06194690242409706 0.0 0.017699114978313446 0.0 0.02654867246747017 0.008849557489156723 0.008849557489156723 0.05309734493494034 0.008849557489156723 0.0 0.0 0.008849557489156723 0.008849557489156723 0.017699114978313446 0.0 0.03539822995662689 0.008849557489156723 0.02654867246747017 0.008849557489156723 0.0 0.008849557489156723 0.008849557489156723 0.008849557489156723 
0 0.0 0.0 0.012269938364624977 0.0 0.0 0.061349689960479736 0.0030674845911562443 0.0 0.021472392603754997 0.0030674845911562443 0.0030674845911562443 0.024539876729249954 0.033742330968379974 0.0030674845911562443 0.01840490847826004 0.02760736085474491 0.012269938364624977 0.024539876729249954 0.021472392603754997 0.0030674845911562443 0.00920245423913002 0.0 0.024539876729249954 0.0061349691823124886 0.00920245423913002 0.0 0.0030674845911562443 0.01840490847826004 0.052147239446640015 0.03680981695652008 0.0 0.0030674845911562443 0.0 0.05521472170948982 0.00920245423913002 0.024539876729249954 0.0 0.012269938364624977 0.00920245423913002 0.015337422490119934 0.021472392603754997 0.033742330968379974 0.0030674845911562443 0.00920245423913002 0.0 0.0061349691823124886 0.021472392603754997 0.0061349691823124886 0.024539876729249954 0.0030674845911562443 0.024539876729249954 0.021472392603754997 0.00920245423913002 0.024539876729249954 0.11349692940711975 0.0 0.0 0.012269938364624977 0.0460122674703598 0.012269938364624977 0.0 0.0061349691823124886 0.0061349691823124886 0.033742330968379974 
0 0.012422360479831696 0.012422360479831696 0.018633540719747543 0.0 0.0 0.01552795059978962 0.006211180239915848 0.003105590119957924 0.03105590119957924 0.0 0.006211180239915848 0.018633540719747543 0.01552795059978962 0.0 0.03416149318218231 0.021739130839705467 0.009316770359873772 0.027950311079621315 0.012422360479831696 0.0 0.01552795059978962 0.018633540719747543 0.03726708143949509 0.0 0.012422360479831696 0.0 0.012422360479831696 0.012422360479831696 0.0590062141418457 0.01552795059978962 0.009316770359873772 0.0 0.006211180239915848 0.09006211161613464 0.006211180239915848 0.006211180239915848 0.003105590119957924 0.003105590119957924 0.021739130839705467 0.02484472095966339 0.009316770359873772 0.04968944191932678 0.0 0.003105590119957924 0.003105590119957924 0.003105590119957924 0.021739130839705467 0.003105590119957924 0.04037266969680786 0.003105590119957924 0.021739130839705467 0.021739130839705467 0.0 0.021739130839705467 0.0590062141418457 0.0 0.0 0.003105590119957924 0.05590062215924263 0.01552795059978962 0.009316770359873772 0.003105590119957924 0.01552795059978962 0.03726708143949509 
0 0.01634877361357212 0.00272479560226202 0.019073568284511566 0.0 0.0 0.04087193310260773 0.0 0.0 0.0136239780113101 0.00544959120452404 0.00272479560226202 0.029972750693559647 0.035422343760728836 0.00272479560226202 0.04904632270336151 0.01634877361357212 0.00272479560226202 0.01634877361357212 0.00817438680678606 0.0 0.035422343760728836 0.01634877361357212 0.01089918240904808 0.00544959120452404 0.00272479560226202 0.0 0.0 0.01634877361357212 0.057220708578825 0.019073568284511566 0.00544959120452404 0.00544959120452404 0.0 0.08174386620521545 0.0 0.01634877361357212 0.0 0.00544959120452404 0.0136239780113101 0.01634877361357212 0.00817438680678606 0.046321526169776917 0.0 0.0136239780113101 0.0 0.0 0.029972750693559647 0.0 0.04359672963619232 0.00272479560226202 0.029972750693559647 0.01089918240904808 0.00817438680678606 0.04904632270336151 0.06267029792070389 0.0 0.0 0.00272479560226202 0.0544959120452404 0.019073568284511566 0.00817438680678606 0.0136239780113101 0.00272479560226202 0.024523161351680756 
0 0.0028490028344094753 0.005698005668818951 0.008547008037567139 0.0 0.0 0.028490029275417328 0.0 0.0 0.025641025975346565 0.0 0.0 0.011396011337637901 0.03988603875041008 0.0 0.025641025975346565 0.014245014637708664 0.017094016075134277 0.025641025975346565 0.017094016075134277 0.0 0.011396011337637901 0.0028490028344094753 0.01994301937520504 0.005698005668818951 0.008547008037567139 0.0 0.014245014637708664 0.01994301937520504 0.05128205195069313 0.017094016075134277 0.0 0.0028490028344094753 0.0 0.09401709586381912 0.005698005668818951 0.008547008037567139 0.0 0.0028490028344094753 0.03703703731298447 0.028490029275417328 0.011396011337637901 0.04273504391312599 0.0 0.0028490028344094753 0.0 0.0028490028344094753 0.017094016075134277 0.0 0.04273504391312599 0.011396011337637901 0.008547008037567139 0.025641025975346565 0.011396011337637901 0.05128205195069313 0.0883190855383873 0.0 0.014245014637708664 0.008547008037567139 0.03988603875041008 0.011396011337637901 0.008547008037567139 0.017094016075134277 0.008547008037567139 0.022792022675275803 
0 0.0029761905316263437 0.008928571827709675 0.011904762126505375 0.0 0.0 0.0595238097012043 0.0 0.0 0.008928571827709675 0.0 0.0059523810632526875 0.011904762126505375 0.011904762126505375 0.0 0.02083333395421505 0.032738097012043 0.0 0.014880952425301075 0.01785714365541935 0.0 0.014880952425301075 0.0029761905316263437 0.0565476194024086 0.0029761905316263437 0.008928571827709675 0.0 0.008928571827709675 0.008928571827709675 0.0386904776096344 0.02678571455180645 0.0 0.0029761905316263437 0.0059523810632526875 0.0803571417927742 0.02083333395421505 0.02678571455180645 0.0 0.0059523810632526875 0.0446428582072258 0.02380952425301075 0.01785714365541935 0.02083333395421505 0.0029761905316263437 0.0059523810632526875 0.0029761905316263437 0.0029761905316263437 0.032738097012043 0.0 0.0416666679084301 0.008928571827709675 0.01785714365541935 0.02083333395421505 0.0029761905316263437 0.0505952388048172 0.0714285746216774 0.0 0.008928571827709675 0.0059523810632526875 0.02976190485060215 0.011904762126505375 0.0059523810632526875 0.011904762126505375 0.008928571827709675 0.02678571455180645 
0 0.006535947788506746 0.003267973894253373 0.003267973894253373 0.0 0.0 0.04575163498520851 0.0 0.009803921915590763 0.009803921915590763 0.0 0.003267973894253373 0.019607843831181526 0.006535947788506746 0.003267973894253373 0.04248366132378578 0.022875817492604256 0.006535947788506746 0.003267973894253373 0.022875817492604256 0.006535947788506746 0.006535947788506746 0.003267973894253373 0.05228758230805397 0.003267973894253373 0.009803921915590763 0.003267973894253373 0.003267973894253373 0.006535947788506746 0.026143791154026985 0.009803921915590763 0.009803921915590763 0.0 0.0 0.0882352963089943 0.022875817492604256 0.029411764815449715 0.006535947788506746 0.022875817492604256 0.04575163498520851 0.019607843831181526 0.03921568766236305 0.03594771400094032 0.0 0.006535947788506746 0.0 0.003267973894253373 0.009803921915590763 0.006535947788506746 0.026143791154026985 0.003267973894253373 0.029411764815449715 0.006535947788506746 0.013071895577013493 0.022875817492604256 0.05882352963089943 0.0 0.009803921915590763 0.006535947788506746 0.03921568766236305 0.03267974033951759 0.009803921915590763 0.019607843831181526 0.016339870169758797 0.019607843831181526 
0 0.0 0.005681818351149559 0.011363636702299118 0.022727273404598236 0.0 0.14772728085517883 0.0 0.0 0.022727273404598236 0.017045455053448677 0.005681818351149559 0.005681818351149559 0.017045455053448677 0.005681818351149559 0.017045455053448677 0.034090910106897354 0.0 0.005681818351149559 0.005681818351149559 0.0 0.022727273404598236 0.0 0.005681818351149559 0.011363636702299118 0.0 0.005681818351149559 0.0 0.017045455053448677 0.034090910106897354 0.0 0.0 0.0 0.0 0.034090910106897354 0.005681818351149559 0.028409091755747795 0.011363636702299118 0.011363636702299118 0.034090910106897354 0.005681818351149559 0.034090910106897354 0.028409091755747795 0.005681818351149559 0.017045455053448677 0.0 0.017045455053448677 0.005681818351149559 0.0 0.05113636702299118 0.0 0.022727273404598236 0.011363636702299118 0.011363636702299118 0.011363636702299118 0.1306818276643753 0.0 0.0 0.017045455053448677 0.034090910106897354 0.028409091755747795 0.017045455053448677 0.0 0.0 0.005681818351149559 
0 0.0055555556900799274 0.0055555556900799274 0.01666666753590107 0.0055555556900799274 0.0 0.10000000149011612 0.0055555556900799274 0.0055555556900799274 0.0 0.0 0.0 0.01666666753590107 0.01666666753590107 0.0055555556900799274 0.011111111380159855 0.011111111380159855 0.0055555556900799274 0.03333333507180214 0.0055555556900799274 0.0055555556900799274 0.0 0.011111111380159855 0.011111111380159855 0.0 0.0 0.0 0.011111111380159855 0.02777777798473835 0.06111111119389534 0.0 0.0055555556900799274 0.01666666753590107 0.0 0.07222222536802292 0.02777777798473835 0.0055555556900799274 0.02222222276031971 0.0055555556900799274 0.0055555556900799274 0.02777777798473835 0.02222222276031971 0.02222222276031971 0.01666666753590107 0.0 0.0 0.02777777798473835 0.01666666753590107 0.0 0.07222222536802292 0.01666666753590107 0.0 0.0 0.0 0.02222222276031971 0.10000000149011612 0.01666666753590107 0.02222222276031971 0.0 0.02777777798473835 0.02222222276031971 0.0055555556900799274 0.0055555556900799274 0.0055555556900799274 0.011111111380159855 
0 0.00913241971284151 0.004566209856420755 0.0 0.004566209856420755 0.0 0.09589041024446487 0.0 0.0 0.027397260069847107 0.013698630034923553 0.027397260069847107 0.004566209856420755 0.0 0.0 0.031963467597961426 0.01826483942568302 0.004566209856420755 0.04109589010477066 0.0 0.004566209856420755 0.01826483942568302 0.013698630034923553 0.01826483942568302 0.0 0.00913241971284151 0.0 0.0 0.02283104881644249 0.04109589010477066 0.013698630034923553 0.004566209856420755 0.0 0.00913241971284151 0.06849315017461777 0.00913241971284151 0.013698630034923553 0.02283104881644249 0.013698630034923553 0.04566209763288498 0.031963467597961426 0.013698630034923553 0.00913241971284151 0.02283104881644249 0.013698630034923553 0.004566209856420755 0.02283104881644249 0.01826483942568302 0.0 0.01826483942568302 0.013698630034923553 0.0 0.013698630034923553 0.0 0.0 0.054794520139694214 0.00913241971284151 0.01826483942568302 0.004566209856420755 0.01826483942568302 0.03652967885136604 0.004566209856420755 0.02283104881644249 0.02283104881644249 0.013698630034923553 
0 0.026178009808063507 0.0 0.010471204295754433 0.010471204295754433 0.0 0.052356019616127014 0.0 0.0 0.020942408591508865 0.005235602147877216 0.052356019616127014 0.020942408591508865 0.010471204295754433 0.0 0.0 0.005235602147877216 0.010471204295754433 0.015706807374954224 0.020942408591508865 0.0 0.005235602147877216 0.005235602147877216 0.015706807374954224 0.0 0.005235602147877216 0.005235602147877216 0.005235602147877216 0.010471204295754433 0.03141361474990845 0.0 0.005235602147877216 0.015706807374954224 0.0 0.03664921596646309 0.005235602147877216 0.015706807374954224 0.04188481718301773 0.0 0.04712041839957237 0.015706807374954224 0.026178009808063507 0.03141361474990845 0.015706807374954224 0.005235602147877216 0.0 0.005235602147877216 0.005235602147877216 0.020942408591508865 0.026178009808063507 0.005235602147877216 0.0 0.005235602147877216 0.0 0.020942408591508865 0.0890052393078804 0.015706807374954224 0.015706807374954224 0.026178009808063507 0.03664921596646309 0.020942408591508865 0.015706807374954224 0.057591624557971954 0.015706807374954224 0.010471204295754433 
0 0.009661835618317127 0.009661835618317127 0.009661835618317127 0.009661835618317127 0.004830917809158564 0.07729468494653702 0.004830917809158564 0.004830917809158564 0.028985507786273956 0.014492753893136978 0.028985507786273956 0.03381642326712608 0.009661835618317127 0.0 0.004830917809158564 0.019323671236634254 0.009661835618317127 0.019323671236634254 0.009661835618317127 0.0 0.014492753893136978 0.014492753893136978 0.0 0.0 0.028985507786273956 0.009661835618317127 0.004830917809158564 0.019323671236634254 0.03381642326712608 0.009661835618317127 0.009661835618317127 0.009661835618317127 0.0 0.014492753893136978 0.014492753893136978 0.004830917809158564 0.009661835618317127 0.004830917809158564 0.043478261679410934 0.014492753893136978 0.02415458858013153 0.019323671236634254 0.004830917809158564 0.019323671236634254 0.004830917809158564 0.0 0.019323671236634254 0.004830917809158564 0.04830917716026306 0.0 0.0 0.009661835618317127 0.004830917809158564 0.03381642326712608 0.06763284653425217 0.0 0.004830917809158564 0.009661835618317127 0.03864734247326851 0.02415458858013153 0.014492753893136978 0.05314009636640549 0.014492753893136978 0.009661835618317127 
0 0.0043668122962117195 0.0 0.008733624592423439 0.0 0.0043668122962117195 0.09606987237930298 0.0 0.0 0.026200873777270317 0.0043668122962117195 0.013100436888635159 0.05676855891942978 0.021834060549736023 0.0043668122962117195 0.013100436888635159 0.017467249184846878 0.0 0.04803493618965149 0.0043668122962117195 0.0 0.017467249184846878 0.017467249184846878 0.021834060549736023 0.0 0.017467249184846878 0.008733624592423439 0.008733624592423439 0.008733624592423439 0.034934498369693756 0.013100436888635159 0.0 0.021834060549736023 0.0 0.0393013097345829 0.0 0.008733624592423439 0.0 0.008733624592423439 0.017467249184846878 0.0043668122962117195 0.017467249184846878 0.0393013097345829 0.0 0.008733624592423439 0.0 0.008733624592423439 0.021834060549736023 0.0043668122962117195 0.03056768700480461 0.0 0.017467249184846878 0.013100436888635159 0.0043668122962117195 0.034934498369693756 0.09606987237930298 0.0 0.0 0.013100436888635159 0.0043668122962117195 0.021834060549736023 0.0043668122962117195 0.05676855891942978 0.017467249184846878 0.013100436888635159 
0 0.0078125 0.015625 0.01953125 0.0 0.0 0.0859375 0.00390625 0.00390625 0.03125 0.0 0.01171875 0.015625 0.0234375 0.0 0.0078125 0.01953125 0.015625 0.03125 0.00390625 0.00390625 0.015625 0.01953125 0.03515625 0.015625 0.00390625 0.00390625 0.0 0.0234375 0.03515625 0.0234375 0.0 0.01171875 0.00390625 0.02734375 0.00390625 0.00390625 0.00390625 0.01171875 0.0234375 0.01171875 0.02734375 0.0234375 0.0 0.00390625 0.00390625 0.00390625 0.02734375 0.00390625 0.03515625 0.00390625 0.015625 0.01171875 0.0078125 0.01171875 0.1015625 0.0 0.01171875 0.015625 0.01953125 0.0234375 0.0078125 0.01953125 0.01953125 0.0234375 
0 0.018449030816555023 0.008442776277661324 0.04346466436982155 0.014696684665977955 0.021575983613729477 0.08599124103784561 0.008442776277661324 0.016260161995887756 0.016260161995887756 0.008755471557378769 0.007191994693130255 0.012507816776633263 0.005628517828881741 0.012507816776633263 0.0025015634018927813 0.0050031268037855625 0.02001250721514225 0.01532207615673542 0.01031894888728857 0.039712317287921906 0.013445903547108173 0.01031894888728857 0.0028142589144408703 0.011882426217198372 0.03001876175403595 0.008755471557378769 0.005315822083503008 0.01031894888728857 0.010631644167006016 0.007504690438508987 0.01938711665570736 0.012820512056350708 0.0025015634018927813 0.01031894888728857 0.0165728572756052 0.00969355832785368 0.02063789777457714 0.02126328833401203 0.011257035657763481 0.0034396497067064047 0.022514071315526962 0.020325202494859695 0.022826766595244408 0.015009380877017975 0.012195121496915817 0.006253908388316631 0.01532207615673542 0.005941213108599186 0.010631644167006016 0.004690431524068117 0.008442776277661324 0.004065040498971939 0.06347717344760895 0.016260161995887756 0.01031894888728857 0.033458411693573 0.011257035657763481 0.023139461874961853 0.01532207615673542 0.008442776277661324 0.0234521571546793 0.009068167768418789 0.016885552555322647 0.008755471557378769 
0 0.017223909497261047 0.007767645642161369 0.058088481426239014 0.022627489641308784 0.018237082287669182 0.07531239092350006 0.012158053927123547 0.016886185854673386 0.016210738569498062 0.007429921999573708 0.004390408284962177 0.013171225786209106 0.007429921999573708 0.013508949428796768 0.002701789839193225 0.004728132393211126 0.02364066056907177 0.012495777569711208 0.008780816569924355 0.060452546924352646 0.003714960999786854 0.007092198356986046 0.002364066196605563 0.015197567641735077 0.02566700428724289 0.006079026963561773 0.0057413033209741116 0.011820330284535885 0.012833502143621445 0.007429921999573708 0.016210738569498062 0.006416751071810722 0.002364066196605563 0.015535291284322739 0.01756163313984871 0.01384667307138443 0.018574805930256844 0.022965213283896446 0.0158730149269104 0.0057413033209741116 0.02566700428724289 0.01789935678243637 0.01756163313984871 0.012495777569711208 0.00540357967838645 0.005065856035798788 0.009456264786422253 0.006416751071810722 0.008443092927336693 0.007767645642161369 0.009456264786422253 0.007092198356986046 0.07565011829137802 0.009456264786422253 0.011482606641948223 0.04120229557156563 0.011482606641948223 0.012833502143621445 0.018237082287669182 0.008780816569924355 0.018574805930256844 0.004728132393211126 0.013171225786209106 0.00540357967838645 
0 0.024087850004434586 0.009210060350596905 0.06376195698976517 0.020191285759210587 0.012043925002217293 0.051718030124902725 0.016648955643177032 0.02231668494641781 0.011689691804349422 0.00708466162905097 0.002125398488715291 0.011689691804349422 0.009564293548464775 0.01310662366449833 0.003542330814525485 0.0017711654072627425 0.02621324732899666 0.01381509006023407 0.01310662366449833 0.05455189570784569 0.0024796314537525177 0.011335458606481552 0.00708466162905097 0.021253984421491623 0.011689691804349422 0.004605030175298452 0.00743889482691884 0.012043925002217293 0.012398158200085163 0.008855827152729034 0.019482819363474846 0.00708466162905097 0.002833864651620388 0.016294721513986588 0.02231668494641781 0.010981225408613682 0.01452355645596981 0.01771165430545807 0.01771165430545807 0.0067304284311831 0.0269217137247324 0.016648955643177032 0.01416932325810194 0.018774352967739105 0.004605030175298452 0.00708466162905097 0.008501593954861164 0.007793127559125423 0.010981225408613682 0.005313496105372906 0.010981225408613682 0.005313496105372906 0.08253630995750427 0.006376195698976517 0.018774352967739105 0.04038257151842117 0.012752391397953033 0.017357420176267624 0.017357420176267624 0.0067304284311831 0.01983705163002014 0.003542330814525485 0.008855827152729034 0.005313496105372906 
0 0.028301887214183807 0.003991291858255863 0.056240927428007126 0.02140783704817295 0.00653120456263423 0.07728592306375504 0.012699564918875694 0.02249637059867382 0.01306240912526846 0.006168359890580177 0.003265602281317115 0.01015965174883604 0.01161103043705225 0.02031930349767208 0.0043541365303099155 0.003265602281317115 0.02431059442460537 0.012336719781160355 0.008708273060619831 0.04862118884921074 0.004716981202363968 0.007619738578796387 0.006894049234688282 0.016690855845808983 0.01995645835995674 0.004716981202363968 0.006894049234688282 0.01923076994717121 0.009071117267012596 0.009433962404727936 0.02177068218588829 0.007982583716511726 0.003265602281317115 0.01306240912526846 0.02358490601181984 0.01124818529933691 0.012336719781160355 0.016690855845808983 0.016328010708093643 0.007619738578796387 0.030116111040115356 0.0195936132222414 0.010522495955228806 0.01995645835995674 0.003991291858255863 0.00507982587441802 0.006894049234688282 0.004716981202363968 0.01124818529933691 0.003265602281317115 0.007256893906742334 0.005805515218526125 0.08817126601934433 0.0043541365303099155 0.02140783704817295 0.034833092242479324 0.014150943607091904 0.010522495955228806 0.015239477157592773 0.01015965174883604 0.015965167433023453 0.0029027576092630625 0.013425254262983799 0.006168359890580177 
0 0.022437533363699913 0.011728710494935513 0.04946456104516983 0.03722590580582619 0.01325854193419218 0.06629271060228348 0.014278430491685867 0.024477308616042137 0.013768485747277737 0.01019887812435627 0.007139215245842934 0.0107088228687644 0.009178990498185158 0.017338093370199203 0.003569607622921467 0.00764915905892849 0.019887812435626984 0.009688934311270714 0.01019887812435627 0.027536971494555473 0.005099439062178135 0.0010198878590017557 0.009178990498185158 0.023457420989871025 0.01529831811785698 0.0015298317885026336 0.009178990498185158 0.014278430491685867 0.011218766681849957 0.005609383340924978 0.018357980996370316 0.005609383340924978 0.005609383340924978 0.008669046685099602 0.020907701924443245 0.009688934311270714 0.01325854193419218 0.017338093370199203 0.014788374304771423 0.004589495249092579 0.02906680479645729 0.01631820574402809 0.022437533363699913 0.020907701924443245 0.0015298317885026336 0.012238654308021069 0.0107088228687644 0.003059663577005267 0.011728710494935513 0.003569607622921467 0.00764915905892849 0.0025497195310890675 0.08006119728088379 0.0020397757180035114 0.0382457934319973 0.03314635530114174 0.011728710494935513 0.021927589550614357 0.01529831811785698 0.01631820574402809 0.016828149557113647 0.003569607622921467 0.014788374304771423 0.003569607622921467 
0 0.016980266198515892 0.017439192160964012 0.044515833258628845 0.021110601723194122 0.022487379610538483 0.08031206578016281 0.020192747935652733 0.020192747935652733 0.023405231535434723 0.010096373967826366 0.010555300861597061 0.009637448005378246 0.005507113412022591 0.016062414273619652 0.0013767783530056477 0.005507113412022591 0.022028453648090363 0.016062414273619652 0.0027535567060112953 0.049105092883110046 0.010555300861597061 0.0022946305107325315 0.006883891765028238 0.022946305572986603 0.020192747935652733 0.0018357044318690896 0.003671408863738179 0.014685635454952717 0.008719596080482006 0.007342817727476358 0.017439192160964012 0.005507113412022591 0.006424965336918831 0.006883891765028238 0.016062414273619652 0.007342817727476358 0.030289122834801674 0.017439192160964012 0.009637448005378246 0.003671408863738179 0.026158787310123444 0.022487379610538483 0.021569527685642242 0.023405231535434723 0.006424965336918831 0.009637448005378246 0.011014226824045181 0.0 0.008260670118033886 0.0027535567060112953 0.005966039374470711 0.0022946305107325315 0.07021569460630417 0.0022946305107325315 0.031206974759697914 0.030748048797249794 0.013308857567608356 0.018815970048308372 0.012391004711389542 0.012391004711389542 0.014685635454952717 0.0022946305107325315 0.012391004711389542 0.004130335059016943 
0 0.022605836391448975 0.01808466948568821 0.031648170202970505 0.016440607607364655 0.029182080179452896 0.07521578669548035 0.010275379754602909 0.010686395689845085 0.028771065175533295 0.007809288799762726 0.011508425697684288 0.011097410693764687 0.006165228318423033 0.029593095183372498 0.004521167371422052 0.009042334742844105 0.01849568448960781 0.011097410693764687 0.005343197844922543 0.0628853291273117 0.010275379754602909 0.006576243322342634 0.006576243322342634 0.03575832396745682 0.023016851395368576 0.004110151901841164 0.007809288799762726 0.011097410693764687 0.012741471640765667 0.004932182375341654 0.014796547591686249 0.005343197844922543 0.006987258326262236 0.010275379754602909 0.011097410693764687 0.009042334742844105 0.028360050171613693 0.014385532587766647 0.010275379754602909 0.006987258326262236 0.023016851395368576 0.02178380638360977 0.014796547591686249 0.012741471640765667 0.006987258326262236 0.015618577599525452 0.009453349746763706 0.009453349746763706 0.012330456636846066 0.002466091187670827 0.006576243322342634 0.004521167371422052 0.07192765921354294 0.003288121661171317 0.016440607607364655 0.016440607607364655 0.023427866399288177 0.016029592603445053 0.006576243322342634 0.016029592603445053 0.014796547591686249 0.004110151901841164 0.006576243322342634 0.003699136897921562 
0 0.021184777840971947 0.010984699241816998 0.030992545187473297 0.01569242775440216 0.021184777840971947 0.09336994588375092 0.00980776734650135 0.003138485597446561 0.02550019510090351 0.00588466040790081 0.005492349620908499 0.011377010494470596 0.013338563963770866 0.011377010494470596 0.005100039299577475 0.005492349620908499 0.01843860372900963 0.020007845014333725 0.00588466040790081 0.08709297329187393 0.007061592768877745 0.010984699241816998 0.004315417725592852 0.014515495859086514 0.021184777840971947 0.006669281981885433 0.005100039299577475 0.010592388920485973 0.016869360581040382 0.00196155346930027 0.012553942389786243 0.01216163206845522 0.0015692427987232804 0.009415457025170326 0.00980776734650135 0.016084738075733185 0.02942330203950405 0.01020007859915495 0.016084738075733185 0.00588466040790081 0.018046291545033455 0.023930951952934265 0.01843860372900963 0.009415457025170326 0.00980776734650135 0.008238525129854679 0.00784621387720108 0.010592388920485973 0.020007845014333725 0.006669281981885433 0.013338563963770866 0.01176932081580162 0.07728520780801773 0.007061592768877745 0.018830914050340652 0.009023145772516727 0.021184777840971947 0.012946252711117268 0.007453903090208769 0.011377010494470596 0.009023145772516727 0.006276971194893122 0.00980776734650135 0.00784621387720108 
0 0.01956787519156933 0.014675906859338284 0.025682836771011353 0.020383203402161598 0.015083570964634418 0.08560945838689804 0.00937627349048853 0.011822258122265339 0.028944149613380432 0.004076640587300062 0.005707297008484602 0.011006929911673069 0.009783937595784664 0.011414594016969204 0.006522625219076872 0.002445984398946166 0.019160211086273193 0.020383203402161598 0.008153281174600124 0.08927842974662781 0.006114961113780737 0.009783937595784664 0.004484304692596197 0.007745617534965277 0.01793721877038479 0.003668976714834571 0.008968609385192394 0.013045250438153744 0.01956787519156933 0.003668976714834571 0.011822258122265339 0.006522625219076872 0.002038320293650031 0.010191601701080799 0.011414594016969204 0.017529554665088654 0.022421523928642273 0.015491235069930553 0.01630656234920025 0.006522625219076872 0.01712189055979252 0.03139013424515724 0.015898898243904114 0.011006929911673069 0.006522625219076872 0.005299632903188467 0.010599265806376934 0.010191601701080799 0.017529554665088654 0.005299632903188467 0.015083570964634418 0.012229922227561474 0.08927842974662781 0.003668976714834571 0.01875254698097706 0.004484304692596197 0.021198531612753868 0.015083570964634418 0.00937627349048853 0.011414594016969204 0.008968609385192394 0.008968609385192394 0.00937627349048853 0.006930289324373007 
0 0.016440607607364655 0.008631319738924503 0.02178380638360977 0.01808466948568821 0.01520756259560585 0.10028771311044693 0.011097410693764687 0.012741471640765667 0.029182080179452896 0.006165228318423033 0.004932182375341654 0.010686395689845085 0.009864364750683308 0.013152486644685268 0.006576243322342634 0.002877106424421072 0.015618577599525452 0.020550759509205818 0.009864364750683308 0.07192765921354294 0.004521167371422052 0.010275379754602909 0.002055075950920582 0.012741471640765667 0.02712700329720974 0.003288121661171317 0.009453349746763706 0.011097410693764687 0.02466091327369213 0.004521167371422052 0.009042334742844105 0.005754212848842144 0.003288121661171317 0.006165228318423033 0.016029592603445053 0.015618577599525452 0.031237155199050903 0.015618577599525452 0.012741471640765667 0.004521167371422052 0.020139744505286217 0.031237155199050903 0.016029592603445053 0.006576243322342634 0.009453349746763706 0.005343197844922543 0.007809288799762726 0.009453349746763706 0.017673654481768608 0.007398273795843124 0.011508425697684288 0.009864364750683308 0.08179202675819397 0.007398273795843124 0.023427866399288177 0.006165228318423033 0.020139744505286217 0.01356350164860487 0.009042334742844105 0.014385532587766647 0.008220303803682327 0.006987258326262236 0.012741471640765667 0.008220303803682327 
0 0.007989907637238503 0.010933557525277138 0.017241379246115685 0.01303616538643837 0.027754414826631546 0.09882254153490067 0.013877207413315773 0.01303616538643837 0.02354920096695423 0.007989907637238503 0.0075693861581385136 0.010933557525277138 0.009671993553638458 0.021026073023676872 0.0075693861581385136 0.003364171599969268 0.011774600483477116 0.013456686399877071 0.006728343199938536 0.049201007932424545 0.012615643441677094 0.007989907637238503 0.001261564320884645 0.014718250371515751 0.03448275849223137 0.005887300241738558 0.006728343199938536 0.005887300241738558 0.02018502913415432 0.004205214325338602 0.017241379246115685 0.007148864679038525 0.002102607162669301 0.004205214325338602 0.010933557525277138 0.014718250371515751 0.023128679022192955 0.031539108604192734 0.01009251456707716 0.00504625728353858 0.02607233077287674 0.014718250371515751 0.026913372799754143 0.01303616538643837 0.016820857301354408 0.010933557525277138 0.014718250371515751 0.01009251456707716 0.01640033721923828 0.009251471608877182 0.007989907637238503 0.0037846930790692568 0.07611437886953354 0.008410428650677204 0.015559293329715729 0.011774600483477116 0.01892346516251564 0.015138772316277027 0.007989907637238503 0.014718250371515751 0.016820857301354408 0.007148864679038525 0.01303616538643837 0.007989907637238503 
0 0.020629750564694405 0.006514658220112324 0.018820123746991158 0.014838943257927895 0.05935577303171158 0.08360478281974792 0.013753167353570461 0.01194353960454464 0.01158161461353302 0.009410061873495579 0.005066956393420696 0.008324285969138145 0.006152732763439417 0.021353602409362793 0.007962360046803951 0.004705030936747789 0.01737242192029953 0.006876583676785231 0.007600434590131044 0.0354686938226223 0.010495837777853012 0.010133912786841393 7.238509133458138E-4 0.01773434691131115 0.02859211154282093 0.007600434590131044 0.003981180023401976 0.003981180023401976 0.012667391449213028 0.005428881850093603 0.027144409716129303 0.012305465526878834 0.002895403653383255 0.002895403653383255 0.013391241431236267 0.0112196896225214 0.012667391449213028 0.04089757800102234 0.012667391449213028 7.238509133458138E-4 0.013029316440224648 0.021353602409362793 0.03655447065830231 0.018458198755979538 0.021715527400374413 0.013029316440224648 0.019905900582671165 0.008686210960149765 0.009771987795829773 0.006514658220112324 0.004705030936747789 0.0036192545667290688 0.05030763894319534 0.0112196896225214 0.006876583676785231 0.03655447065830231 0.015924720093607903 0.021715527400374413 0.007962360046803951 0.014115093275904655 0.02823018655180931 0.006876583676785231 0.007600434590131044 0.00579080730676651 
0 0.04628369212150574 0.006806425750255585 0.01361285150051117 0.013340594246983528 0.040294039994478226 0.04546692222356796 0.012251566164195538 0.01551865041255951 0.008712224662303925 0.007895453833043575 0.004083855077624321 0.007623196579515934 0.006534168496727943 0.020963789895176888 0.004083855077624321 0.0013612851034849882 0.03675469756126404 0.005717397667467594 0.0051728831604123116 0.022597333416342735 0.007078682538121939 0.014157365076243877 0.0019057991448789835 0.020963789895176888 0.02940375730395317 0.01361285150051117 0.0035393412690609694 0.002994827227666974 0.007623196579515934 0.008712224662303925 0.030220529064536095 0.01987476274371147 5.445140413939953E-4 0.006534168496727943 0.016335420310497284 0.006806425750255585 0.011979308910667896 0.04764498025178909 0.007623196579515934 0.0016335421241819859 0.01933024823665619 0.02368636056780815 0.04846175014972687 0.018513478338718414 0.02722570300102234 0.007895453833043575 0.02531990222632885 0.011162538081407547 0.007895453833043575 0.002178056165575981 0.004083855077624321 0.002994827227666974 0.05417914688587189 0.011434795334935188 0.011707051657140255 0.03702695667743683 0.009256739169359207 0.02531990222632885 0.012796079739928246 0.011434795334935188 0.028859244659543037 0.007350939325988293 0.005445140413939953 0.002178056165575981 
0 0.060353051871061325 0.0028625954873859882 0.013835878111422062 0.01121183205395937 0.025763358920812607 0.05009542033076286 0.016698474064469337 0.013597328215837479 0.009303434751927853 0.006440839730203152 0.0059637404046952724 0.005009542219340801 0.004055343568325043 0.02218511514365673 0.0028625954873859882 0.0021469464991241693 0.05033396929502487 0.00739503838121891 0.005248091649264097 0.00739503838121891 0.00739503838121891 0.02385496161878109 9.541984763927758E-4 0.026240458711981773 0.03578244149684906 0.013120229355990887 0.001669847290031612 0.0026240458246320486 0.006202290300279856 0.010496183298528194 0.030295802280306816 0.02385496161878109 0.004055343568325043 0.0059637404046952724 0.01765267178416252 0.008349237032234669 0.010496183298528194 0.03315839543938637 0.00882633589208126 0.0019083969527855515 0.015744274482131004 0.026479007676243782 0.05033396929502487 0.013835878111422062 0.024809161201119423 0.0059637404046952724 0.03291984647512436 0.011688930913805962 0.004055343568325043 0.0019083969527855515 0.005009542219340801 0.002385496161878109 0.04484732821583748 0.015267175622284412 0.010019084438681602 0.05009542033076286 0.007156488485634327 0.016937023028731346 0.015028625726699829 0.004532442893832922 0.027671756222844124 0.007872137241065502 0.007156488485634327 0.0026240458246320486 
1 0.010649627074599266 0.014909477904438972 0.008519701659679413 0.022364217787981033 0.0628328025341034 0.022364217787981033 0.00958466436713934 0.03407880663871765 0.00638977624475956 0.017039403319358826 0.01277955248951912 0.007454738952219486 0.008519701659679413 0.02023429051041603 0.01277955248951912 0.008519701659679413 0.005324813537299633 0.00638977624475956 0.011714589782059193 0.010649627074599266 0.00958466436713934 0.011714589782059193 0.005324813537299633 0.013844515196979046 0.03194887936115265 0.011714589782059193 0.01916932873427868 0.005324813537299633 0.00958466436713934 0.010649627074599266 0.02023429051041603 0.018104366958141327 0.00958466436713934 0.017039403319358826 0.022364217787981033 0.02023429051041603 0.00958466436713934 0.018104366958141327 0.023429179564118385 0.008519701659679413 0.03407880663871765 0.014909477904438972 0.036208733916282654 0.010649627074599266 0.028753992170095444 0.017039403319358826 0.015974439680576324 0.013844515196979046 0.005324813537299633 0.015974439680576324 0.008519701659679413 0.004259850829839706 0.028753992170095444 0.01277955248951912 0.007454738952219486 0.02023429051041603 0.015974439680576324 0.02555910497903824 0.007454738952219486 0.005324813537299633 0.027689030393958092 0.00958466436713934 0.010649627074599266 0.013844515196979046 
1 0.015521064400672913 0.016629710793495178 0.004434589762240648 0.037694014608860016 0.016629710793495178 0.008869179524481297 0.017738359048962593 0.03991130739450455 0.003325942438095808 0.022172948345541954 0.026607539504766464 0.007760532200336456 0.011086474172770977 0.018847007304430008 0.016629710793495178 0.011086474172770977 0.006651884876191616 0.004434589762240648 0.012195121496915817 0.012195121496915817 0.008869179524481297 0.014412417076528072 0.004434589762240648 0.013303769752383232 0.013303769752383232 0.014412417076528072 0.016629710793495178 0.0055432370863854885 0.008869179524481297 0.013303769752383232 0.018847007304430008 0.012195121496915817 0.02549889124929905 0.013303769752383232 0.031042128801345825 0.02328159660100937 0.017738359048962593 0.006651884876191616 0.03658536449074745 0.0055432370863854885 0.04101995378732681 0.009977826848626137 0.026607539504766464 0.014412417076528072 0.02328159660100937 0.016629710793495178 0.013303769752383232 0.003325942438095808 0.013303769752383232 0.018847007304430008 0.008869179524481297 0.012195121496915817 0.024390242993831635 0.022172948345541954 0.007760532200336456 0.011086474172770977 0.02771618589758873 0.017738359048962593 0.012195121496915817 0.004434589762240648 0.011086474172770977 0.013303769752383232 0.02106430195271969 0.011086474172770977 
1 0.010185184888541698 0.023148147389292717 0.007407407276332378 0.026851851493120193 0.01111111044883728 0.006481481250375509 0.023148147389292717 0.04814814776182175 0.010185184888541698 0.031481482088565826 0.01111111044883728 0.010185184888541698 0.01111111044883728 0.013888888992369175 0.014814814552664757 0.003703703638166189 0.009259259328246117 0.009259259328246117 0.006481481250375509 0.009259259328246117 0.01111111044883728 0.009259259328246117 0.01111111044883728 0.007407407276332378 0.013888888992369175 0.010185184888541698 0.009259259328246117 0.009259259328246117 0.014814814552664757 0.01111111044883728 0.012037036940455437 0.006481481250375509 0.014814814552664757 0.009259259328246117 0.02777777798473835 0.014814814552664757 0.026851851493120193 0.02222222089767456 0.020370369777083397 0.014814814552664757 0.035185184329748154 0.00833333283662796 0.01944444328546524 0.01111111044883728 0.02777777798473835 0.013888888992369175 0.015740741044282913 0.004629629664123058 0.01111111044883728 0.012037036940455437 0.02222222089767456 0.01944444328546524 0.03055555559694767 0.017592592164874077 0.018518518656492233 0.024074073880910873 0.02777777798473835 0.020370369777083397 0.01111111044883728 0.007407407276332378 0.018518518656492233 0.02222222089767456 0.012962962500751019 0.013888888992369175 
1 0.0062667857855558395 0.01880035735666752 0.0026857652701437473 0.02327663265168667 0.011638316325843334 0.005371530540287495 0.02148612216114998 0.034914951771497726 0.009847806766629219 0.01074306108057499 0.01074306108057499 0.015219337306916714 0.014324082061648369 0.019695613533258438 0.012533571571111679 0.0062667857855558395 0.007162041030824184 0.011638316325843334 0.0062667857855558395 0.011638316325843334 0.005371530540287495 0.009847806766629219 0.01700984686613083 0.008952551521360874 0.013428826816380024 0.004476275760680437 0.01074306108057499 0.004476275760680437 0.01790510304272175 0.01700984686613083 0.013428826816380024 0.01074306108057499 0.01611459255218506 0.025962399318814278 0.024171888828277588 0.019695613533258438 0.02148612216114998 0.043867502361536026 0.013428826816380024 0.014324082061648369 0.022381378337740898 0.004476275760680437 0.04118173569440842 0.013428826816380024 0.01880035735666752 0.026857653632760048 0.02148612216114998 0.004476275760680437 0.01880035735666752 0.009847806766629219 0.01074306108057499 0.01611459255218506 0.02148612216114998 0.02059086784720421 0.011638316325843334 0.04118173569440842 0.02327663265168667 0.02059086784720421 0.015219337306916714 0.005371530540287495 0.022381378337740898 0.01074306108057499 0.009847806766629219 0.01611459255218506 
1 0.010964912362396717 0.01864035055041313 0.003289473708719015 0.02302631549537182 0.017543859779834747 0.007675438653677702 0.010964912362396717 0.04385964944958687 0.0054824561811983585 0.0021929824724793434 0.01864035055041313 0.014254385605454445 0.015350877307355404 0.01864035055041313 0.017543859779834747 0.00657894741743803 0.00657894741743803 0.012061404064297676 0.003289473708719015 0.03399122878909111 0.007675438653677702 0.016447369009256363 0.009868420660495758 0.008771929889917374 0.01315789483487606 0.004385964944958687 0.014254385605454445 0.009868420660495758 0.009868420660495758 0.007675438653677702 0.027412280440330505 0.00657894741743803 0.02083333395421505 0.016447369009256363 0.024122808128595352 0.01315789483487606 0.01315789483487606 0.004385964944958687 0.03618421033024788 0.015350877307355404 0.025219298899173737 0.007675438653677702 0.017543859779834747 0.014254385605454445 0.019736841320991516 0.032894738018512726 0.015350877307355404 0.015350877307355404 0.015350877307355404 0.015350877307355404 0.007675438653677702 0.014254385605454445 0.0416666679084301 0.02302631549537182 0.008771929889917374 0.032894738018512726 0.025219298899173737 0.017543859779834747 0.014254385605454445 0.008771929889917374 0.014254385605454445 0.02083333395421505 0.017543859779834747 0.004385964944958687 
1 0.004960317630320787 0.01984127052128315 0.01388888992369175 0.01488095335662365 0.01488095335662365 0.02182539738714695 0.02182539738714695 0.0337301604449749 0.008928571827709675 0.006944444961845875 0.01388888992369175 0.01488095335662365 0.006944444961845875 0.01884920708835125 0.01686508022248745 0.02083333395421505 0.01289682649075985 0.008928571827709675 0.01289682649075985 0.01289682649075985 0.01884920708835125 0.004960317630320787 0.006944444961845875 0.0297619067132473 0.01984127052128315 0.007936508394777775 0.003968254197388887 0.009920635260641575 0.01488095335662365 0.005952381528913975 0.01388888992369175 0.010912698693573475 0.02182539738714695 0.01488095335662365 0.0248015895485878 0.01785714365541935 0.01884920708835125 0.0019841270986944437 0.01388888992369175 0.01686508022248745 0.02083333395421505 0.007936508394777775 0.0257936529815197 0.02281746082007885 0.009920635260641575 0.032738097012043 0.0257936529815197 0.006944444961845875 0.01289682649075985 0.01388888992369175 0.01388888992369175 0.01785714365541935 0.0347222238779068 0.007936508394777775 0.010912698693573475 0.01984127052128315 0.02281746082007885 0.01289682649075985 0.01488095335662365 0.01488095335662365 0.02182539738714695 0.01388888992369175 0.01488095335662365 0.01884920708835125 
1 0.010893246158957481 0.019607841968536377 0.0032679736614227295 0.019607841968536377 0.040305010974407196 0.01742919348180294 0.0239651408046484 0.014161219820380211 0.0032679736614227295 0.022875815629959106 0.00871459674090147 0.00871459674090147 0.0021786491852253675 0.0119825704023242 0.025054465979337692 0.007625272031873465 0.009803920984268188 0.004357298370450735 0.0119825704023242 0.007625272031873465 0.004357298370450735 0.016339868307113647 0.0032679736614227295 0.05773420259356499 0.03159041330218315 0.00871459674090147 0.00871459674090147 0.0010893245926126838 0.007625272031873465 0.00871459674090147 0.014161219820380211 0.01525054406374693 0.0032679736614227295 0.0032679736614227295 0.03050108812749386 0.018518518656492233 0.004357298370450735 0.040305010974407196 0.005446623079478741 0.0010893245926126838 0.043572984635829926 0.006535947322845459 0.04466230794787407 0.016339868307113647 0.0239651408046484 0.019607841968536377 0.01742919348180294 0.014161219820380211 0.006535947322845459 0.006535947322845459 0.009803920984268188 0.006535947322845459 0.04466230794787407 0.014161219820380211 0.007625272031873465 0.040305010974407196 0.016339868307113647 0.01742919348180294 0.014161219820380211 0.026143789291381836 0.0119825704023242 0.006535947322845459 0.005446623079478741 0.021786492317914963 
1 0.012048192322254181 0.015060240402817726 0.0030120480805635452 0.005020080134272575 0.03815260902047157 0.01004016026854515 0.014056224375963211 0.017068272456526756 0.0060240961611270905 0.014056224375963211 0.01606425642967224 0.00401606410741806 0.01606425642967224 0.02208835259079933 0.011044176295399666 0.0060240961611270905 0.013052208349108696 0.00803212821483612 0.023092368617653847 0.00401606410741806 0.0070281121879816055 0.012048192322254181 0.009036144241690636 0.03514055907726288 0.015060240402817726 0.0060240961611270905 0.015060240402817726 0.00803212821483612 0.017068272456526756 0.01606425642967224 0.028112448751926422 0.013052208349108696 0.005020080134272575 0.024096384644508362 0.03313253074884415 0.01606425642967224 0.00401606410741806 0.012048192322254181 0.0200803205370903 0.013052208349108696 0.043172687292099 0.013052208349108696 0.031124496832489967 0.014056224375963211 0.026104416698217392 0.009036144241690636 0.030120480805635452 0.009036144241690636 0.01004016026854515 0.009036144241690636 0.012048192322254181 0.013052208349108696 0.029116464778780937 0.013052208349108696 0.013052208349108696 0.03514055907726288 0.0200803205370903 0.014056224375963211 0.01606425642967224 0.00803212821483612 0.02208835259079933 0.009036144241690636 0.00803212821483612 0.025100400671362877 
1 0.015754560008645058 0.014925372786819935 0.004145937040448189 0.024875622242689133 0.023217247799038887 0.012437811121344566 0.024046434089541435 0.046434495598077774 0.009950248524546623 0.021558871492743492 0.014925372786819935 0.012437811121344566 0.007462686393409967 0.021558871492743492 0.0091210613027215 0.005804311949759722 0.005804311949759722 0.004145937040448189 0.006633499171584845 0.02653399668633938 0.004975124262273312 0.011608623899519444 0.01326699834316969 0.0091210613027215 0.0091210613027215 0.006633499171584845 0.009950248524546623 0.004975124262273312 0.017412934452295303 0.014925372786819935 0.015754560008645058 0.009950248524546623 0.024875622242689133 0.007462686393409967 0.03399668261408806 0.014096185564994812 0.02985074557363987 0.05140961706638336 0.02985074557363987 0.008291874080896378 0.02985074557363987 0.008291874080896378 0.023217247799038887 0.019071310758590698 0.016583748161792755 0.019071310758590698 0.008291874080896378 0.009950248524546623 0.01326699834316969 0.012437811121344566 0.012437811121344566 0.010779435746371746 0.024875622242689133 0.007462686393409967 0.0091210613027215 0.019900497049093246 0.02238805964589119 0.016583748161792755 0.01326699834316969 0.012437811121344566 0.017412934452295303 0.007462686393409967 0.017412934452295303 0.0091210613027215 
1 0.014666666276752949 0.01733333244919777 0.005333333276212215 0.02266666665673256 0.009333333000540733 0.02266666665673256 0.030666666105389595 0.04399999976158142 0.01066666655242443 0.006666666828095913 0.007999999448657036 0.01733333244919777 0.03199999779462814 0.02666666731238365 0.012000000104308128 0.013333333656191826 0.007999999448657036 0.005333333276212215 0.013333333656191826 0.01066666655242443 0.0013333333190530539 0.009333333000540733 0.01599999889731407 0.007999999448657036 0.02266666665673256 0.0026666666381061077 0.005333333276212215 0.003999999724328518 0.019999999552965164 0.01599999889731407 0.006666666828095913 0.012000000104308128 0.01599999889731407 0.029333332553505898 0.04933333396911621 0.018666666001081467 0.005333333276212215 0.005333333276212215 0.024000000208616257 0.009333333000540733 0.014666666276752949 0.013333333656191826 0.02666666731238365 0.025333333760499954 0.01599999889731407 0.0279999990016222 0.02266666665673256 0.007999999448657036 0.01066666655242443 0.009333333000540733 0.01733333244919777 0.013333333656191826 0.030666666105389595 0.006666666828095913 0.024000000208616257 0.02666666731238365 0.014666666276752949 0.014666666276752949 0.01066666655242443 0.009333333000540733 0.01066666655242443 0.012000000104308128 0.007999999448657036 0.014666666276752949 
1 0.01430274173617363 0.023837901651859283 0.005959475412964821 0.023837901651859283 0.041716329753398895 0.02026221714913845 0.02026221714913845 0.0309892725199461 0.008343265391886234 0.013110846281051636 0.021454112604260445 0.021454112604260445 0.009535160847008228 0.02264600619673729 0.019070321694016457 0.004767580423504114 0.008343265391886234 0.011918950825929642 0.011918950825929642 0.010727056302130222 0.005959475412964821 0.005959475412964821 0.0035756854340434074 0.02264600619673729 0.01549463625997305 0.01668653078377247 0.013110846281051636 0.0011918951058760285 0.010727056302130222 0.005959475412964821 0.017878426238894463 0.013110846281051636 0.008343265391886234 0.019070321694016457 0.035756852477788925 0.010727056302130222 0.008343265391886234 0.02264600619673729 0.01549463625997305 0.007151370868086815 0.029797377064824104 0.002383790211752057 0.025029797106981277 0.027413588017225266 0.009535160847008228 0.01668653078377247 0.021454112604260445 0.004767580423504114 0.013110846281051636 0.008343265391886234 0.009535160847008228 0.008343265391886234 0.03933253884315491 0.019070321694016457 0.011918950825929642 0.023837901651859283 0.021454112604260445 0.021454112604260445 0.01668653078377247 0.007151370868086815 0.029797377064824104 0.010727056302130222 0.007151370868086815 0.010727056302130222 
1 0.010657194070518017 0.022202488034963608 0.011545293033123016 0.02486678585410118 0.009769094176590443 0.008880995213985443 0.01865008845925331 0.04085257649421692 0.015985790640115738 0.005328597035259008 0.0310834813863039 0.015985790640115738 0.011545293033123016 0.023090586066246033 0.007992895320057869 0.003552397945895791 0.010657194070518017 0.010657194070518017 0.0044404976069927216 0.0364120788872242 0.007104795891791582 0.009769094176590443 0.0044404976069927216 0.019538188353180885 0.007992895320057869 0.0044404976069927216 0.011545293033123016 0.015985790640115738 0.007104795891791582 0.008880995213985443 0.008880995213985443 0.01332149188965559 0.038188278675079346 0.010657194070518017 0.03463587909936905 0.010657194070518017 0.01865008845925331 0.008880995213985443 0.04085257649421692 0.006216696463525295 0.02486678585410118 0.007104795891791582 0.0310834813863039 0.009769094176590443 0.023090586066246033 0.027531083673238754 0.011545293033123016 0.016873890534043312 0.008880995213985443 0.010657194070518017 0.011545293033123016 0.005328597035259008 0.03463587909936905 0.019538188353180885 0.014209591783583164 0.05062166973948479 0.01865008845925331 0.010657194070518017 0.011545293033123016 0.006216696463525295 0.010657194070518017 0.007104795891791582 0.008880995213985443 0.007104795891791582 
1 0.01781737245619297 0.018930958583950996 0.005567928776144981 0.02672605961561203 0.024498887360095978 0.012249443680047989 0.011135857552289963 0.027839643880724907 0.0066815149039030075 0.02338530123233795 0.027839643880724907 0.010022272355854511 0.012249443680047989 0.01781737245619297 0.010022272355854511 0.0066815149039030075 0.024498887360095978 0.005567928776144981 0.008908686228096485 0.016703786328434944 0.0066815149039030075 0.013363029807806015 0.008908686228096485 0.02338530123233795 0.007795100565999746 0.012249443680047989 0.011135857552289963 0.005567928776144981 0.012249443680047989 0.01781737245619297 0.020044544711709023 0.015590201131999493 0.03674833104014397 0.008908686228096485 0.02338530123233795 0.008908686228096485 0.010022272355854511 0.012249443680047989 0.03340757265686989 0.0022271715570241213 0.01781737245619297 0.020044544711709023 0.012249443680047989 0.008908686228096485 0.02338530123233795 0.024498887360095978 0.022271715104579926 0.027839643880724907 0.013363029807806015 0.013363029807806015 0.022271715104579926 0.008908686228096485 0.03006681613624096 0.013363029807806015 0.007795100565999746 0.03229398652911186 0.015590201131999493 0.01781737245619297 0.008908686228096485 0.0066815149039030075 0.01781737245619297 0.005567928776144981 0.007795100565999746 0.015590201131999493 
1 0.009045226499438286 0.02512562833726406 0.01306532695889473 0.04321607947349548 0.027135677635669708 0.01809045299887657 0.03417085483670235 0.028140703216195107 0.01809045299887657 0.01005025114864111 0.02010050229728222 0.011055275797843933 0.014070351608097553 0.008040200918912888 0.012060301378369331 0.008040200918912888 0.006030150689184666 0.016080401837825775 0.01005025114864111 0.054271355271339417 0.012060301378369331 0.006030150689184666 0.009045226499438286 0.028140703216195107 0.003015075344592333 0.007035175804048777 0.002010050229728222 0.01005025114864111 0.01306532695889473 0.011055275797843933 0.01005025114864111 0.0 0.02010050229728222 0.014070351608097553 0.04522613063454628 0.011055275797843933 0.03618090599775314 0.011055275797843933 0.01909547671675682 0.012060301378369331 0.015075376257300377 0.003015075344592333 0.022110551595687866 0.023115577176213264 0.011055275797843933 0.027135677635669708 0.008040200918912888 0.002010050229728222 0.012060301378369331 0.007035175804048777 0.015075376257300377 0.014070351608097553 0.03718592971563339 0.007035175804048777 0.027135677635669708 0.03216080367565155 0.01005025114864111 0.007035175804048777 0.006030150689184666 0.007035175804048777 0.015075376257300377 0.004020100459456444 0.014070351608097553 0.007035175804048777 
1 0.010101011022925377 0.035353537648916245 0.001010101055726409 0.016161616891622543 0.04343434423208237 0.017171718180179596 0.020202022045850754 0.014141414314508438 0.003030303167179227 0.016161616891622543 0.01313131395727396 0.003030303167179227 0.004040404222905636 0.03434343636035919 0.01818181946873665 0.004040404222905636 0.004040404222905636 0.002020202111452818 0.017171718180179596 0.001010101055726409 0.012121212668716908 0.014141414314508438 0.003030303167179227 0.035353537648916245 0.028282828629016876 0.014141414314508438 0.012121212668716908 0.001010101055726409 0.008080808445811272 0.006060606334358454 0.01313131395727396 0.009090909734368324 0.010101011022925377 0.003030303167179227 0.025252526625990868 0.011111111380159855 0.0050505055114626884 0.04848485067486763 0.016161616891622543 0.004040404222905636 0.04040404409170151 0.004040404222905636 0.04141414165496826 0.01313131395727396 0.027272729203104973 0.01515151560306549 0.021212121471762657 0.017171718180179596 0.010101011022925377 0.023232324048876762 0.007070707157254219 0.008080808445811272 0.03737374022603035 0.01818181946873665 0.003030303167179227 0.03333333507180214 0.011111111380159855 0.020202022045850754 0.009090909734368324 0.027272729203104973 0.02626262791454792 0.009090909734368324 0.007070707157254219 0.012121212668716908 
1 0.008403361774981022 0.016806723549962044 0.00630252156406641 0.014705883339047432 0.026260506361722946 0.024159664288163185 0.01995798386633396 0.01995798386633396 0.007352941669523716 0.018907563760876656 0.02310924418270588 0.005252100992947817 0.009453781880438328 0.016806723549962044 0.013655463233590126 0.010504201985895634 0.018907563760876656 0.009453781880438328 0.010504201985895634 0.00630252156406641 0.015756303444504738 0.009453781880438328 0.00630252156406641 0.04096638783812523 0.024159664288163185 0.00630252156406641 0.007352941669523716 0.004201680887490511 0.009453781880438328 0.007352941669523716 0.024159664288163185 0.01155462209135294 0.01155462209135294 0.005252100992947817 0.024159664288163185 0.01155462209135294 0.008403361774981022 0.031512606889009476 0.016806723549962044 0.007352941669523716 0.04411764815449715 0.010504201985895634 0.02310924418270588 0.016806723549962044 0.022058824077248573 0.03256302699446678 0.013655463233590126 0.008403361774981022 0.013655463233590126 0.009453781880438328 0.009453781880438328 0.004201680887490511 0.03466386720538139 0.021008403971791267 0.004201680887490511 0.03256302699446678 0.02521008625626564 0.015756303444504738 0.01260504312813282 0.027310926467180252 0.007352941669523716 0.010504201985895634 0.01260504312813282 0.01785714365541935 
1 0.0055555556900799274 0.041111111640930176 0.011111111380159855 0.011111111380159855 0.03444444388151169 0.019999999552965164 0.012222222983837128 0.02111111208796501 0.007777777966111898 0.013333333656191826 0.025555556640028954 0.011111111380159855 0.0055555556900799274 0.02111111208796501 0.013333333656191826 0.002222222276031971 0.0055555556900799274 0.008888889104127884 0.009999999776482582 0.004444444552063942 0.013333333656191826 0.012222222983837128 0.0055555556900799274 0.05000000074505806 0.025555556640028954 0.008888889104127884 0.009999999776482582 0.01666666753590107 0.012222222983837128 0.0 0.02111111208796501 0.008888889104127884 0.012222222983837128 0.0033333334140479565 0.02111111208796501 0.009999999776482582 0.009999999776482582 0.03666666895151138 0.02111111208796501 0.009999999776482582 0.019999999552965164 0.002222222276031971 0.023333333432674408 0.019999999552965164 0.030000001192092896 0.02222222276031971 0.02222222276031971 0.0055555556900799274 0.011111111380159855 0.014444444328546524 0.0055555556900799274 0.006666666828095913 0.04444444552063942 0.012222222983837128 0.011111111380159855 0.035555556416511536 0.030000001192092896 0.008888889104127884 0.006666666828095913 0.006666666828095913 0.023333333432674408 0.015555555932223797 0.011111111380159855 0.01666666753590107 
1 0.01160337496548891 0.029535863548517227 0.007383965887129307 0.016877636313438416 0.020042192190885544 0.01054852269589901 0.02320674993097782 0.01160337496548891 0.008438818156719208 0.024261601269245148 0.02848101034760475 0.003164556808769703 0.012658227235078812 0.020042192190885544 0.02320674993097782 0.01160337496548891 0.014767931774258614 0.006329113617539406 0.007383965887129307 0.01054852269589901 0.012658227235078812 0.006329113617539406 0.008438818156719208 0.024261601269245148 0.018987340852618217 0.005274261347949505 0.009493670426309109 0.008438818156719208 0.016877636313438416 0.006329113617539406 0.018987340852618217 0.012658227235078812 0.02109704539179802 0.003164556808769703 0.03375527262687683 0.01160337496548891 0.009493670426309109 0.0263713076710701 0.02109704539179802 0.002109704539179802 0.0263713076710701 0.009493670426309109 0.03164556622505188 0.020042192190885544 0.024261601269245148 0.018987340852618217 0.02848101034760475 0.01160337496548891 0.009493670426309109 0.022151898592710495 0.013713079504668713 0.01054852269589901 0.027426159009337425 0.020042192190885544 0.007383965887129307 0.013713079504668713 0.016877636313438416 0.020042192190885544 0.013713079504668713 0.02109704539179802 0.01582278311252594 0.014767931774258614 0.007383965887129307 0.01582278311252594 
1 0.011198208667337894 0.02911534160375595 0.02351623773574829 0.0033594626002013683 0.015677493065595627 0.02351623773574829 0.008958566933870316 0.025755880400538445 0.010078387334942818 0.01791713386774063 0.011198208667337894 0.010078387334942818 0.019036954268813133 0.011198208667337894 0.014557670801877975 0.019036954268813133 0.007838746532797813 0.015677493065595627 0.011198208667337894 0.0033594626002013683 0.007838746532797813 0.005599104333668947 0.013437850400805473 0.020156774669885635 0.02799552120268345 0.0033594626002013683 0.008958566933870316 0.011198208667337894 0.015677493065595627 0.004479283466935158 0.010078387334942818 0.013437850400805473 0.008958566933870316 0.013437850400805473 0.015677493065595627 0.014557670801877975 0.007838746532797813 0.007838746532797813 0.036954089999198914 0.007838746532797813 0.05151176080107689 0.013437850400805473 0.019036954268813133 0.010078387334942818 0.01791713386774063 0.02351623773574829 0.02799552120268345 0.011198208667337894 0.01679731346666813 0.007838746532797813 0.019036954268813133 0.011198208667337894 0.05151176080107689 0.012318029999732971 0.011198208667337894 0.011198208667337894 0.01791713386774063 0.014557670801877975 0.013437850400805473 0.04031354933977127 0.007838746532797813 0.013437850400805473 0.02351623773574829 0.005599104333668947 
1 0.01336074061691761 0.01849948614835739 0.006166495382785797 0.01644398830831051 0.01849948614835739 0.022610483691096306 0.02980472892522812 0.019527235999703407 0.007194244768470526 0.027749231085181236 0.025693731382489204 0.011305241845548153 0.010277492925524712 0.015416239388287067 0.017471738159656525 0.012332990765571594 0.015416239388287067 0.005138746462762356 0.006166495382785797 0.011305241845548153 0.006166495382785797 0.008221994154155254 0.007194244768470526 0.023638233542442322 0.010277492925524712 0.005138746462762356 0.008221994154155254 0.0030832476913928986 0.02672148123383522 0.006166495382785797 0.02158273383975029 0.004110997077077627 0.03186022862792015 0.010277492925524712 0.03186022862792015 0.009249743074178696 0.01336074061691761 0.02158273383975029 0.017471738159656525 0.009249743074178696 0.020554985851049423 0.010277492925524712 0.023638233542442322 0.027749231085181236 0.019527235999703407 0.019527235999703407 0.01336074061691761 0.010277492925524712 0.01849948614835739 0.009249743074178696 0.014388489536941051 0.014388489536941051 0.033915724605321884 0.01849948614835739 0.022610483691096306 0.028776979073882103 0.019527235999703407 0.01644398830831051 0.022610483691096306 0.008221994154155254 0.014388489536941051 0.012332990765571594 0.006166495382785797 0.009249743074178696 
1 0.012249443680047989 0.03674833104014397 0.020044544711709023 0.024498887360095978 0.011135857552289963 0.03006681613624096 0.022271715104579926 0.022271715104579926 0.011135857552289963 0.018930958583950996 0.014476615004241467 0.011135857552289963 0.011135857552289963 0.012249443680047989 0.013363029807806015 0.0022271715570241213 0.024498887360095978 0.010022272355854511 0.007795100565999746 0.0033407574519515038 0.0033407574519515038 0.016703786328434944 0.010022272355854511 0.025612473487854004 0.015590201131999493 0.008908686228096485 0.010022272355854511 0.02672605961561203 0.012249443680047989 0.0033407574519515038 0.018930958583950996 0.012249443680047989 0.016703786328434944 0.010022272355854511 0.03674833104014397 0.016703786328434944 0.024498887360095978 0.0211581289768219 0.025612473487854004 0.013363029807806015 0.012249443680047989 0.0066815149039030075 0.008908686228096485 0.014476615004241467 0.0211581289768219 0.018930958583950996 0.0211581289768219 0.008908686228096485 0.011135857552289963 0.011135857552289963 0.016703786328434944 0.008908686228096485 0.03229398652911186 0.008908686228096485 0.012249443680047989 0.0211581289768219 0.016703786328434944 0.0211581289768219 0.012249443680047989 0.01781737245619297 0.020044544711709023 0.0066815149039030075 0.011135857552289963 0.011135857552289963 
1 0.017467249184846878 0.020960699766874313 0.006986899767071009 0.008733624592423439 0.01572052389383316 0.027947599068284035 0.014847162179648876 0.018340611830353737 0.00611353712156415 0.01572052389383316 0.020087337121367455 0.00611353712156415 0.005240174941718578 0.014847162179648876 0.01572052389383316 0.0034934498835355043 0.017467249184846878 0.0043668122962117195 0.0043668122962117195 0.00786026194691658 0.011353712528944016 0.011353712528944016 0.017467249184846878 0.028820961713790894 0.026200873777270317 0.00786026194691658 0.013100436888635159 0.0043668122962117195 0.00611353712156415 0.008733624592423439 0.03231441229581833 0.018340611830353737 0.010480349883437157 0.00611353712156415 0.0393013097345829 0.013973799534142017 0.005240174941718578 0.013973799534142017 0.020087337121367455 0.00786026194691658 0.027947599068284035 0.010480349883437157 0.03842794895172119 0.0122270742431283 0.02270742505788803 0.011353712528944016 0.027947599068284035 0.0122270742431283 0.013973799534142017 0.01572052389383316 0.017467249184846878 0.0034934498835355043 0.028820961713790894 0.020960699766874313 0.009606987237930298 0.04104803502559662 0.02358078584074974 0.020087337121367455 0.0034934498835355043 0.026200873777270317 0.027947599068284035 0.010480349883437157 0.00611353712156415 0.0122270742431283 
1 0.01428571529686451 0.02261904813349247 0.0035714288242161274 0.0035714288242161274 0.02619047649204731 0.02500000037252903 0.01666666753590107 0.011904762126505375 0.0023809524718672037 0.0416666679084301 0.011904762126505375 0.0035714288242161274 0.013095238246023655 0.01785714365541935 0.01547619141638279 0.01785714365541935 0.010714286006987095 0.007142857648432255 0.0035714288242161274 0.0059523810632526875 0.007142857648432255 0.013095238246023655 0.011904762126505375 0.02261904813349247 0.05119047686457634 0.010714286006987095 0.011904762126505375 0.007142857648432255 0.01785714365541935 0.011904762126505375 0.013095238246023655 0.01428571529686451 0.007142857648432255 0.004761904943734407 0.02261904813349247 0.009523809887468815 0.0059523810632526875 0.02023809589445591 0.011904762126505375 0.010714286006987095 0.02738095261156559 0.010714286006987095 0.03095238283276558 0.02261904813349247 0.03690476343035698 0.010714286006987095 0.01666666753590107 0.02142857201397419 0.01785714365541935 0.01547619141638279 0.007142857648432255 0.0035714288242161274 0.02142857201397419 0.01547619141638279 0.008333333767950535 0.01785714365541935 0.02261904813349247 0.02857143059372902 0.01666666753590107 0.02380952425301075 0.01428571529686451 0.01666666753590107 0.009523809887468815 0.02261904813349247 
1 0.02187902294099331 0.012870012782514095 0.006435006391257048 0.011583011597394943 0.027027027681469917 0.007722008042037487 0.023166023194789886 0.018018018454313278 0.012870012782514095 0.02960103005170822 0.011583011597394943 0.011583011597394943 0.010296010412275791 0.028314027935266495 0.018018018454313278 0.005148005206137896 0.009009009227156639 0.005148005206137896 0.01673101633787155 0.005148005206137896 0.0038610040210187435 0.015444016084074974 0.0038610040210187435 0.02187902294099331 0.03474903479218483 0.015444016084074974 0.011583011597394943 0.0 0.012870012782514095 0.009009009227156639 0.009009009227156639 0.012870012782514095 0.010296010412275791 0.007722008042037487 0.020592020824551582 0.012870012782514095 0.007722008042037487 0.012870012782514095 0.011583011597394943 0.009009009227156639 0.05148005113005638 0.010296010412275791 0.0334620326757431 0.01673101633787155 0.024453025311231613 0.02574002556502819 0.014157013967633247 0.018018018454313278 0.012870012782514095 0.023166023194789886 0.007722008042037487 0.005148005206137896 0.036036036908626556 0.015444016084074974 0.010296010412275791 0.030888032168149948 0.015444016084074974 0.01673101633787155 0.010296010412275791 0.02574002556502819 0.007722008042037487 0.01673101633787155 0.018018018454313278 0.018018018454313278 
1 0.013414634391665459 0.011585365980863571 0.008536585606634617 0.0219512190669775 0.014634146355092525 0.0219512190669775 0.02378048747777939 0.02926829271018505 0.006097560748457909 0.010365854017436504 0.010365854017436504 0.014024389907717705 0.012804877944290638 0.018292682245373726 0.014024389907717705 0.015853658318519592 0.011585365980863571 0.007317073177546263 0.015243902802467346 0.011585365980863571 0.007317073177546263 0.006707317195832729 0.007926829159259796 0.01768292672932148 0.012804877944290638 0.004268292803317308 0.009146341122686863 0.004878048785030842 0.02073170803487301 0.014024389907717705 0.019512195140123367 0.009756097570061684 0.023170731961727142 0.014634146355092525 0.01890243962407112 0.008536585606634617 0.009146341122686863 0.006097560748457909 0.02926829271018505 0.007926829159259796 0.04085365682840347 0.009756097570061684 0.01768292672932148 0.027439024299383163 0.012195121496915817 0.027439024299383163 0.026829268783330917 0.008536585606634617 0.011585365980863571 0.008536585606634617 0.012804877944290638 0.007926829159259796 0.050609756261110306 0.015853658318519592 0.02926829271018505 0.03963414579629898 0.02073170803487301 0.0219512190669775 0.011585365980863571 0.0018292682943865657 0.021341463550925255 0.010365854017436504 0.008536585606634617 0.011585365980863571 
1 0.005217391531914473 0.06000000238418579 0.03478261083364487 0.004347826354205608 0.014782609418034554 0.07652173936367035 0.0034782609436661005 0.0034782609436661005 0.025217391550540924 0.0026086957659572363 0.0017391304718330503 0.007826087065041065 0.011304347775876522 0.009565217420458794 0.01304347813129425 0.0026086957659572363 0.006086956709623337 0.03130434826016426 0.01565217413008213 0.004347826354205608 0.004347826354205608 0.006956521887332201 0.005217391531914473 0.021739130839705467 0.011304347775876522 0.01304347813129425 0.010434783063828945 0.01565217413008213 0.01304347813129425 0.012173913419246674 0.008695652708411217 0.004347826354205608 0.0026086957659572363 0.01304347813129425 0.004347826354205608 0.035652175545692444 0.006086956709623337 0.033043477684259415 0.0260869562625885 0.006086956709623337 0.06000000238418579 0.0017391304718330503 0.005217391531914473 0.006086956709623337 0.006086956709623337 0.016521738842129707 0.021739130839705467 0.014782609418034554 0.013913043774664402 0.029565218836069107 0.01565217413008213 0.009565217420458794 0.1008695662021637 0.005217391531914473 0.021739130839705467 0.0034782609436661005 0.0034782609436661005 0.011304347775876522 0.009565217420458794 0.008695652708411217 0.010434783063828945 0.01304347813129425 0.007826087065041065 0.01565217413008213 
1 0.007739937864243984 0.05727554112672806 0.01702786237001419 0.006965944077819586 0.033281732350587845 0.050309594720602036 0.010061919689178467 0.013931888155639172 0.021671826019883156 0.006191950291395187 0.005417956504970789 0.012383900582790375 0.007739937864243984 0.019349845126271248 0.009287925437092781 0.003869968932121992 0.005417956504970789 0.015479875728487968 0.007739937864243984 0.014705881476402283 0.009287925437092781 0.006965944077819586 0.0030959751456975937 0.03637770935893059 0.011609906330704689 0.013931888155639172 0.017801856622099876 0.009287925437092781 0.016253869980573654 0.009287925437092781 0.015479875728487968 7.739937864243984E-4 0.005417956504970789 0.011609906330704689 0.012383900582790375 0.01315789483487606 0.03018575720489025 0.02631578966975212 0.03405572474002838 0.01315789483487606 0.038699690252542496 0.005417956504970789 0.008513931185007095 0.01315789483487606 0.006965944077819586 0.014705881476402283 0.019349845126271248 0.0023219813592731953 0.011609906330704689 0.015479875728487968 0.01702786237001419 0.006965944077819586 0.06733746081590652 0.011609906330704689 0.023219812661409378 0.01315789483487606 0.014705881476402283 0.013931888155639172 0.010835913009941578 0.025541795417666435 0.01315789483487606 0.005417956504970789 0.011609906330704689 0.006965944077819586 
1 0.011523688212037086 0.011523688212037086 0.024967990815639496 0.019846351817250252 0.004481433890759945 0.0448143407702446 0.005761844106018543 0.014724711887538433 0.026248399168252945 0.010243277996778488 0.007682458497583866 0.018565941601991653 0.0211267601698637 0.01280409749597311 0.010883483104407787 0.010883483104407787 0.014724711887538433 0.03137004002928734 0.018565941601991653 0.014724711887538433 0.01344430260360241 0.005121638998389244 0.0032010243739932775 0.026248399168252945 0.01664532721042633 0.004481433890759945 0.009603072889149189 0.010883483104407787 0.023047376424074173 0.011523688212037086 0.01344430260360241 0.005761844106018543 0.024327784776687622 0.01344430260360241 0.019846351817250252 0.020486555993556976 0.02560819499194622 0.007042253389954567 0.02560819499194622 0.019846351817250252 0.023687580600380898 0.009603072889149189 0.005121638998389244 0.019206145778298378 0.005761844106018543 0.01664532721042633 0.023047376424074173 0.004481433890759945 0.018565941601991653 0.012163892388343811 0.01280409749597311 0.01664532721042633 0.0620998740196228 0.0019206146243959665 0.028169013559818268 0.011523688212037086 0.024967990815639496 0.01664532721042633 0.005121638998389244 0.005761844106018543 0.014724711887538433 0.008322663605213165 0.00896286778151989 0.00896286778151989 
1 0.016151685267686844 0.01755617931485176 0.025983145460486412 0.016853932291269302 0.010533708147704601 0.05898876488208771 0.014747191220521927 0.01334269717335701 0.021067416295409203 0.011938202194869518 0.010533708147704601 0.019662922248244286 0.015449438244104385 0.01334269717335701 0.007724719122052193 0.007022472098469734 0.007022472098469734 0.01825842633843422 0.012640449218451977 0.016151685267686844 0.00561797758564353 0.0014044943964108825 0.00912921316921711 0.037921350449323654 0.014044944196939468 0.009831461124122143 0.015449438244104385 0.016151685267686844 0.019662922248244286 0.01755617931485176 0.01123595517128706 0.007022472098469734 0.020365169271826744 0.007022472098469734 0.02176966331899166 0.014747191220521927 0.029494382441043854 0.003511236049234867 0.020365169271826744 0.016151685267686844 0.033707864582538605 0.015449438244104385 0.011938202194869518 0.012640449218451977 0.006320224609225988 0.01755617931485176 0.021067416295409203 0.008426966145634651 0.02176966331899166 0.00912921316921711 0.01334269717335701 0.014044944196939468 0.042837079614400864 0.0014044943964108825 0.01755617931485176 0.00912921316921711 0.028089888393878937 0.01825842633843422 0.007022472098469734 0.004915730562061071 0.01334269717335701 0.014044944196939468 0.015449438244104385 0.00912921316921711 
1 0.010925449430942535 0.01478149089962244 0.01670951209962368 0.018637532368302345 0.0038560410030186176 0.04113110527396202 0.023778920993208885 0.01478149089962244 0.022493572905659676 0.007712082006037235 0.0019280205015093088 0.01156812347471714 0.013496143743395805 0.017352184280753136 0.01156812347471714 0.01221079658716917 0.00835475604981184 0.018637532368302345 0.017352184280753136 0.01478149089962244 0.01542416401207447 0.00578406173735857 0.01156812347471714 0.02313624694943428 0.016066838055849075 0.00899742916226387 0.010925449430942535 0.009640103206038475 0.021208226680755615 0.007069408893585205 0.010925449430942535 0.007712082006037235 0.01799485832452774 0.01542416401207447 0.02056555263698101 0.017352184280753136 0.019922878593206406 0.010282776318490505 0.01670951209962368 0.01413881778717041 0.03084832802414894 0.007069408893585205 0.018637532368302345 0.01799485832452774 0.006426735315471888 0.02056555263698101 0.023778920993208885 0.005141388159245253 0.02313624694943428 0.01156812347471714 0.01478149089962244 0.009640103206038475 0.06555269658565521 0.004498714581131935 0.02699228748679161 0.02056555263698101 0.018637532368302345 0.01542416401207447 0.01221079658716917 0.005141388159245253 0.009640103206038475 0.01478149089962244 0.01670951209962368 0.017352184280753136 
1 0.0036877687089145184 0.011677934788167477 0.027658266946673393 0.03564843162894249 0.0036877687089145184 0.07805777341127396 0.019668100401759148 0.01352181937545538 0.027658266946673393 0.004302396904677153 0.0018438843544572592 0.017824215814471245 0.019053472205996513 0.00676090968772769 0.007375537417829037 0.008604793809354305 0.0030731407459825277 0.024585125967860222 0.01352181937545538 0.022126613184809685 0.008604793809354305 0.005531653296202421 0.004302396904677153 0.025199754163622856 0.0061462814919650555 0.010448678396642208 0.011677934788167477 0.02151198498904705 0.02151198498904705 0.009834050200879574 0.011063306592404842 0.0061462814919650555 0.017824215814471245 0.01720958761870861 0.028887523338198662 0.011677934788167477 0.029502149671316147 0.01352181937545538 0.022126613184809685 0.016594959422945976 0.029502149671316147 0.009834050200879574 0.01352181937545538 0.019053472205996513 0.0024585125502198935 0.014751074835658073 0.025199754163622856 0.004302396904677153 0.016594959422945976 0.007375537417829037 0.012907191179692745 0.01352181937545538 0.059004299342632294 0.0018438843544572592 0.011677934788167477 0.022126613184809685 0.01843884401023388 0.011677934788167477 0.0036877687089145184 0.0061462814919650555 0.008604793809354305 0.007990165613591671 0.01720958761870861 0.012907191179692745 
1 0.014765101484954357 0.016778524965047836 0.005369127728044987 0.030201343819499016 0.011409396305680275 0.02348993346095085 0.04093959927558899 0.04161074012517929 0.00671140942722559 0.020134229212999344 0.026174496859312057 0.005369127728044987 0.012751678004860878 0.02818792127072811 0.005369127728044987 0.012080537155270576 0.008053692057728767 0.004026846028864384 0.004026846028864384 0.020805370062589645 0.010067114606499672 0.004697986878454685 0.011409396305680275 0.03288590908050537 0.017449665814638138 0.008053692057728767 0.00939597375690937 0.007382550742477179 0.003355704713612795 0.008724832907319069 0.01812080666422844 0.0026845638640224934 0.020134229212999344 0.010067114606499672 0.02818792127072811 0.016778524965047836 0.030201343819499016 0.014765101484954357 0.01812080666422844 0.003355704713612795 0.020134229212999344 0.00671140942722559 0.02281879261136055 0.017449665814638138 0.012080537155270576 0.02348993346095085 0.024161074310541153 0.008724832907319069 0.004026846028864384 0.007382550742477179 0.008053692057728767 0.004697986878454685 0.0449664443731308 0.004697986878454685 0.016107384115457535 0.05906040593981743 0.019463088363409042 0.016778524965047836 0.010067114606499672 0.016107384115457535 0.01342281885445118 0.004697986878454685 0.012080537155270576 0.008724832907319069 
1 0.010676156729459763 0.010676156729459763 0.004982206504791975 0.04341636970639229 0.014946619048714638 0.024911032989621162 0.04341636970639229 0.0398576520383358 0.004982206504791975 0.027046263217926025 0.019217081367969513 0.004982206504791975 0.007117437664419413 0.04056939482688904 0.0056939502246677876 0.011387900449335575 0.009252669289708138 0.0035587188322097063 0.007829181849956512 0.02277580089867115 0.014234875328838825 0.007117437664419413 0.007829181849956512 0.038434162735939026 0.011387900449335575 0.008540925569832325 0.010676156729459763 0.0056939502246677876 0.007117437664419413 0.007829181849956512 0.018505338579416275 0.0056939502246677876 0.014234875328838825 0.009252669289708138 0.02846975065767765 0.011387900449335575 0.030604982748627663 0.007829181849956512 0.016370106488466263 0.0028469751123338938 0.0398576520383358 0.004982206504791975 0.04270462691783905 0.01708185113966465 0.007829181849956512 0.016370106488466263 0.0128113878890872 0.0064056939445436 0.0035587188322097063 0.00996441300958395 0.010676156729459763 0.004982206504791975 0.02846975065767765 0.0042704627849161625 0.017793593928217888 0.046975091099739075 0.022064056247472763 0.01708185113966465 0.014946619048714638 0.0042704627849161625 0.019217081367969513 0.0042704627849161625 0.009252669289708138 0.0128113878890872 
1 0.01739652082324028 0.014996999874711037 0.005998800043016672 0.028194360435009003 0.03359328210353851 0.004799040034413338 0.038992200046777725 0.03479304164648056 0.006598680280148983 0.023395320400595665 0.017996400594711304 0.002399520017206669 0.010797839611768723 0.04019195958971977 0.005998800043016672 0.005998800043016672 0.004799040034413338 0.005998800043016672 0.006598680280148983 0.006598680280148983 0.008998200297355652 0.005998800043016672 0.0017996400129050016 0.04139171913266182 0.01739652082324028 0.01139772031456232 0.01139772031456232 0.005998800043016672 0.010197959840297699 0.012597479857504368 0.02099579945206642 0.014996999874711037 0.005398919805884361 0.009598080068826675 0.03119375929236412 0.01139772031456232 0.016196759417653084 0.018596280366182327 0.010197959840297699 0.005998800043016672 0.044391121715307236 0.012597479857504368 0.040791839361190796 0.009598080068826675 0.010197959840297699 0.01739652082324028 0.016796641051769257 0.005998800043016672 0.005398919805884361 0.013197360560297966 0.010197959840297699 0.0011997600086033344 0.026994600892066956 0.006598680280148983 0.005998800043016672 0.07558488100767136 0.0383923202753067 0.01919616013765335 0.0071985600516200066 0.00779843982309103 0.014397120103240013 0.006598680280148983 0.0035992800258100033 0.011997600086033344 
1 0.013582343235611916 0.09762309491634369 0.009337861090898514 0.003395585808902979 0.033955857157707214 0.012733446434140205 0.002546689473092556 0.010186757892370224 0.009337861090898514 0.018675722181797028 0.007640067953616381 0.004244482144713402 0.013582343235611916 0.02122241072356701 0.01188455056399107 0.004244482144713402 0.008488964289426804 0.009337861090898514 0.014431240037083626 0.006791171617805958 0.029711375012993813 0.006791171617805958 0.005942275281995535 0.04668930545449257 0.009337861090898514 0.009337861090898514 0.016129031777381897 0.003395585808902979 0.01188455056399107 0.019524618983268738 0.007640067953616381 0.016129031777381897 0.002546689473092556 0.01188455056399107 0.004244482144713402 0.013582343235611916 0.01103565376251936 0.038200341165065765 0.039898134768009186 0.0 0.07470288872718811 0.007640067953616381 0.006791171617805958 0.005942275281995535 0.02292020432651043 0.020373515784740448 0.02292020432651043 0.018675722181797028 0.01103565376251936 0.014431240037083626 0.010186757892370224 0.005093378946185112 0.0653650239109993 0.012733446434140205 0.0016977929044514894 0.002546689473092556 0.002546689473092556 0.005942275281995535 0.01103565376251936 0.02461799792945385 0.012733446434140205 0.004244482144713402 0.009337861090898514 0.009337861090898514 
1 0.013878179714083672 0.09020817279815674 0.0038550500757992268 0.0038550500757992268 0.02852736972272396 0.0215882807970047 0.0077101001515984535 0.009252119809389114 0.015420200303196907 0.019275249913334846 0.004626059904694557 0.0030840400140732527 0.009252119809389114 0.022359289228916168 0.010023130103945732 0.009252119809389114 0.0038550500757992268 0.010023130103945732 0.01079414039850235 0.0023130299523472786 0.016962220892310143 0.006168080028146505 0.005397070199251175 0.027756359428167343 0.015420200303196907 0.008481110446155071 0.01464919000864029 0.006168080028146505 0.010023130103945732 0.016191210597753525 0.009252119809389114 0.01079414039850235 0.0030840400140732527 0.011565149761736393 0.0215882807970047 0.016191210597753525 0.009252119809389114 0.026214340701699257 0.037779491394758224 0.0023130299523472786 0.05705473944544792 0.006168080028146505 0.01233616005629301 0.008481110446155071 0.022359289228916168 0.020046260207891464 0.02544333040714264 0.009252119809389114 0.0077101001515984535 0.013878179714083672 0.0077101001515984535 7.710100035183132E-4 0.07632999122142792 0.01079414039850235 0.01464919000864029 0.0038550500757992268 0.006939089857041836 0.016191210597753525 0.016191210597753525 0.03700847923755646 0.015420200303196907 0.011565149761736393 0.0077101001515984535 0.01773322932422161 
1 0.013649425469338894 0.06393678486347198 0.009339080192148685 0.007902299053966999 0.03376436606049538 0.01652298867702484 0.01149425283074379 0.01149425283074379 0.01508620660752058 0.01508620660752058 0.006465516984462738 0.008620689623057842 0.01508620660752058 0.008620689623057842 0.01149425283074379 0.014367816038429737 0.01149425283074379 0.010057471692562103 0.013649425469338894 0.005747126415371895 0.020114943385124207 0.009339080192148685 0.006465516984462738 0.028735632076859474 0.010775862261652946 0.01149425283074379 0.015804598107933998 0.008620689623057842 0.010775862261652946 0.010775862261652946 0.009339080192148685 0.005747126415371895 0.0021551724057644606 0.01508620660752058 0.01652298867702484 0.015804598107933998 0.006465516984462738 0.038074713200330734 0.029454022645950317 0.005747126415371895 0.05387930944561958 0.0071839080192148685 0.01149425283074379 0.008620689623057842 0.012931033968925476 0.01867816038429737 0.02083333395421505 0.007902299053966999 0.01149425283074379 0.024425286799669266 0.01149425283074379 0.005747126415371895 0.07183907926082611 0.022270115092396736 0.012931033968925476 0.005747126415371895 0.01508620660752058 0.010057471692562103 0.010057471692562103 0.031609196215867996 0.012212643399834633 0.01508620660752058 0.006465516984462738 0.010775862261652946 
1 0.010116731747984886 0.06848248839378357 0.006225680932402611 0.007003891281783581 0.021011672914028168 0.05136186629533768 0.002334630349650979 0.008560311049222946 0.015564202331006527 0.006225680932402611 0.0077821011655032635 0.018677042797207832 0.008560311049222946 0.006225680932402611 0.0077821011655032635 0.014785991981625557 0.009338521398603916 0.014007782563567162 0.008560311049222946 0.005447470583021641 0.014785991981625557 0.012451361864805222 0.0038910505827516317 0.02879377454519272 0.012451361864805222 0.012451361864805222 0.014785991981625557 0.006225680932402611 0.005447470583021641 0.010116731747984886 0.010894941166043282 0.010116731747984886 0.002334630349650979 0.013229572214186192 0.010116731747984886 0.017120622098445892 0.02568093314766884 0.026459144428372383 0.03346303477883339 0.0031128404662013054 0.06070039048790932 0.004669260699301958 0.004669260699301958 0.010116731747984886 0.010894941166043282 0.014785991981625557 0.017120622098445892 0.017898833379149437 0.012451361864805222 0.017120622098445892 0.011673151515424252 0.009338521398603916 0.09105058014392853 0.017120622098445892 0.02568093314766884 0.008560311049222946 0.009338521398603916 0.013229572214186192 0.004669260699301958 0.028015565127134323 0.010894941166043282 0.005447470583021641 0.013229572214186192 0.009338521398603916 
1 0.007703081239014864 0.02450980432331562 0.004201680887490511 0.009803921915590763 0.007703081239014864 0.07913165539503098 0.014705882407724857 0.009803921915590763 0.009803921915590763 0.018907563760876656 0.016806723549962044 0.014005602337419987 0.009803921915590763 0.007703081239014864 0.014705882407724857 0.012605042196810246 0.008403361774981022 0.007703081239014864 0.010504201985895634 0.016806723549962044 0.009803921915590763 0.007703081239014864 0.015406162478029728 0.019607843831181526 0.014005602337419987 0.007703081239014864 0.006302521098405123 0.009803921915590763 0.010504201985895634 0.0049019609577953815 0.016806723549962044 0.009103641845285892 0.021708684042096138 0.018207283690571785 0.026610644534230232 0.014705882407724857 0.021008403971791267 0.013305322267115116 0.028011204674839973 0.006302521098405123 0.0357142873108387 0.007703081239014864 0.007002801168709993 0.011904762126505375 0.02310924418270588 0.013305322267115116 0.018907563760876656 0.008403361774981022 0.012605042196810246 0.007002801168709993 0.011904762126505375 0.011204482056200504 0.07983193546533585 0.028711484745144844 0.020308123901486397 0.011904762126505375 0.02310924418270588 0.014005602337419987 0.007703081239014864 0.018207283690571785 0.014005602337419987 0.011904762126505375 0.006302521098405123 0.008403361774981022 
