6 10
0 0.210663 0.00443414 0.00129476 1.49976E-4 6.58719E-8 9.95866E-6 -5.34818E-9 2.23 1.27 1.28 
0 0.215192 0.00418483 0.0014092 1.65372E-4 7.98011E-8 1.06887E-5 -2.22795E-9 2.2 1.28 1.28 
0 0.213199 0.00476317 0.00128168 1.50531E-4 6.58726E-8 1.03795E-5 -5.70509E-9 0.94 1.24 1.29 
0 0.214412 0.00451095 0.00133774 1.47106E-4 6.52511E-8 9.88019E-6 -9.47216E-10 1.64 1.29 1.27 
0 0.170914 8.28114E-4 3.40428E-4 1.14661E-5 6.6697E-10 2.9973E-7 2.61403E-10 0.34 1.3 1.28 
0 0.172415 0.00118569 2.94387E-4 1.32757E-5 8.26566E-10 4.48992E-7 7.47474E-11 1.53 1.29 1.29 
0 0.183924 0.00242419 5.20858E-4 4.77866E-5 7.53883E-9 2.34958E-6 6.17122E-11 0.51 1.34 1.25 
0 0.177373 9.02783E-4 5.03737E-4 2.49761E-5 2.7999E-9 7.48443E-7 9.43501E-11 2.14 0.77 1.23 
0 0.198582 0.00199843 0.00101375 9.05798E-5 2.70278E-8 3.92126E-6 -4.78485E-9 0.85 1.23 1.32 
0 0.197524 0.00193614 0.00103263 9.70168E-5 3.02921E-8 4.17339E-6 -5.03272E-9 1.18 1.28 1.33 
0 0.23789 0.00392029 0.00220806 3.21517E-4 2.36421E-7 1.65033E-5 1.32259E-7 1.95 1.28 1.29 
0 0.233826 0.00378633 0.00206821 2.82408E-4 1.90334E-7 1.43757E-5 1.01763E-7 0.49 1.24 1.27 
0 0.230588 0.00340293 0.00203302 2.64458E-4 1.71207E-7 1.31564E-5 9.10506E-8 2.35 1.28 1.28 
0 0.28609 0.00537546 0.00506478 0.00141174 -1.81372E-7 -9.36302E-6 3.77062E-6 1.14 1.39 1.26 
0 0.200211 0.00287063 9.68178E-4 1.06568E-4 3.35698E-8 5.64951E-6 6.69397E-9 0.76 1.24 1.37 
0 0.198167 0.00258727 9.12096E-4 1.02422E-4 2.96223E-8 5.01461E-6 1.01246E-8 2.21 1.28 1.27 
0 0.201066 0.00311992 0.00100598 1.20608E-4 4.07325E-8 6.61806E-6 1.02832E-8 0.34 1.28 1.28 
0 0.182675 0.00217119 5.58706E-4 4.39229E-5 6.87958E-9 2.04581E-6 1.20869E-10 1.56 1.29 1.24 
0 0.206794 0.00225203 0.00113925 1.14009E-4 4.10562E-8 5.40941E-6 -1.62735E-9 0.57 1.28 1.28 
0 0.207405 0.00269786 0.00120664 1.1912E-4 4.33588E-8 5.98586E-6 1.26314E-8 0.7 1.25 1.27 
0 0.175988 0.00134022 3.77258E-4 1.69638E-5 1.29952E-9 6.0136E-7 3.91045E-10 0.74 1.24 1.32 
0 0.190565 0.00103308 7.11185E-4 5.761E-5 1.15976E-8 1.84338E-6 1.21457E-9 1.09 1.25 1.33 
0 0.1882 0.00100368 6.74722E-4 5.34503E-5 1.01331E-8 1.68963E-6 5.94477E-10 1.12 1.25 1.32 
0 0.186981 0.00150404 7.65443E-4 4.99106E-5 9.65611E-9 1.93486E-6 -1.38844E-9 0.26 1.28 1.28 
0 0.172767 7.80748E-4 4.53404E-4 1.07932E-5 2.7917E-10 1.31158E-7 7.01526E-10 0.81 1.26 1.37 
0 0.197179 0.00309356 9.37838E-4 8.96593E-5 2.57261E-8 4.9458E-6 -3.75713E-9 1.4 1.27 1.32 
0 0.183973 0.00192798 5.53588E-4 3.18497E-5 4.19069E-9 1.39336E-6 -5.68852E-10 1.23 1.38 1.12 
0 0.210297 0.00318824 0.00132214 1.53605E-4 6.59966E-8 8.36807E-6 -2.0886E-8 1.81 1.24 1.32 
0 0.216 0.00397985 0.00163189 2.01307E-4 1.13201E-7 1.2646E-5 2.2322E-8 1.16 1.32 1.26 
0 0.194707 0.00228189 9.13768E-4 6.94237E-5 1.58324E-8 3.17349E-6 7.4215E-9 1.21 1.18 1.35 
0 0.205054 0.00223992 0.00128309 1.29386E-4 5.13651E-8 5.92464E-6 1.18676E-8 1.31 1.23 1.32 
0 0.176029 0.00105921 4.89844E-4 3.70745E-6 -1.5768E-10 -6.27566E-8 9.96064E-12 1.38 1.24 1.32 
0 0.189058 0.0010475 6.73173E-4 4.36117E-5 7.10453E-9 1.3452E-6 2.31611E-9 2.27 1.27 1.3 
0 0.204951 0.00335848 0.00101805 1.10437E-4 3.7005E-8 6.38641E-6 1.36361E-9 0.93 1.26 1.26 
0 0.192304 0.0014087 7.31281E-4 4.9821E-5 9.37509E-9 1.85195E-6 1.59365E-9 2.34 1.28 1.28 
0 0.199622 0.00236595 8.98171E-4 9.11324E-5 2.39597E-8 4.22854E-6 1.02823E-8 0.61 1.16 1.34 
0 0.188474 0.00191545 6.04283E-4 4.63141E-5 7.65371E-9 2.0171E-6 1.20518E-9 2.35 1.28 1.28 
0 0.197481 0.00263969 8.33695E-4 8.16438E-5 1.93099E-8 4.00315E-6 8.99084E-9 0.79 1.33 1.28 
0 0.182721 0.0011316 5.57928E-4 3.04396E-5 3.95854E-9 1.02394E-6 2.5683E-10 2.11 1.28 1.28 
0 0.178603 0.0017908 3.83577E-4 1.82522E-5 1.52496E-9 7.72091E-7 8.28977E-11 2.35 1.28 1.28 
0 0.198333 0.00158782 9.53084E-4 8.49428E-5 2.39722E-8 3.38089E-6 3.0763E-9 0.74 1.3 1.32 
0 0.170989 0.00132428 1.80588E-4 4.87228E-6 1.43335E-10 1.76892E-7 1.85079E-11 1.1 1.33 1.3 
0 0.221425 6.47046E-4 0.00187953 1.12875E-4 4.89108E-8 2.82942E-6 -1.76272E-8 0.83 1.3 1.31 
0 0.221202 6.50891E-4 0.0016881 1.36682E-4 6.32261E-8 3.4648E-6 -1.76925E-8 0.92 1.29 1.29 
0 0.2217 5.22585E-4 0.00194569 1.20523E-4 3.62579E-8 2.22221E-6 -4.57351E-8 0.83 1.31 1.26 
0 0.230242 0.00517389 0.00167328 2.09027E-4 8.93835E-8 1.26054E-5 8.53952E-8 2.13 1.3 1.26 
0 0.235007 0.00576678 0.00165721 2.04238E-4 1.01771E-7 1.41237E-5 6.13281E-8 0.52 1.29 1.26 
0 0.182814 0.00176597 4.08796E-4 1.21346E-5 8.48828E-10 5.08653E-7 -9.96015E-11 1.32 1.39 1.21 
0 0.236902 0.00677386 0.00175239 2.29836E-4 1.44866E-7 1.8749E-5 -1.70193E-8 1.21 1.27 1.28 
0 0.189138 0.00146847 7.31953E-4 3.72947E-5 5.68968E-9 1.35015E-6 -2.36565E-9 0.98 1.05 2.21 
0 0.214473 0.00271803 0.00121778 1.03756E-4 3.3257E-8 5.12898E-6 -1.5943E-8 1.66 1.27 1.28 
0 0.207667 0.00381591 0.00108495 1.28781E-4 4.80705E-8 7.95506E-6 2.53466E-9 1.37 1.31 1.26 
0 0.231226 0.0056537 0.00179475 2.50631E-4 1.66433E-7 1.8689E-5 -2.35787E-8 0.77 1.3 1.26 
0 0.21112 0.00449804 0.00105138 9.1224E-5 2.74633E-8 6.0582E-6 -6.6271E-9 0.6 1.27 1.31 
0 0.186176 0.00244884 4.37719E-4 2.34927E-5 2.37851E-9 1.15917E-6 -1.34393E-10 1.07 1.3 1.37 
0 0.215504 0.00477003 0.00107837 1.23218E-4 4.32664E-8 8.2285E-6 -1.20586E-8 2.18 1.33 1.26 
1 0.197153 0.00230872 0.00154258 4.37876E-5 3.59715E-9 -1.00768E-6 1.07968E-8 2.35 1.28 1.28 
1 0.17396 9.81356E-4 4.65719E-4 5.32949E-5 8.39081E-9 1.16176E-6 3.05078E-10 1.06 1.2 1.32 
1 0.167294 0.00128974 2.17181E-4 3.90377E-6 -1.00466E-10 -1.40168E-7 5.31693E-11 1.53 1.3 1.28 
1 0.166425 6.8694E-4 2.94499E-4 2.59919E-6 -5.68678E-11 -6.81214E-8 4.40149E-11 0.48 1.27 1.29 
1 0.170237 0.00113689 4.8949E-4 3.23849E-6 -1.05961E-10 -4.78507E-8 -7.34678E-11 1.81 0.62 1.1 
1 0.17469 0.00127562 6.55344E-4 9.2733E-6 -7.16385E-10 -3.14606E-7 9.69403E-11 1.66 1.24 1.35 
1 0.250564 0.00443871 0.00465149 2.24965E-4 2.20908E-7 6.82206E-6 -6.44848E-8 2.08 1.28 1.28 
1 0.224248 0.00348552 0.00289382 1.92688E-4 1.41931E-7 4.51578E-6 -2.36387E-8 2.35 1.28 1.28 
1 0.264389 0.00890049 0.00204073 1.19424E-4 -5.17181E-8 -6.59268E-6 -2.83036E-8 1.01 1.33 1.27 
1 0.169629 0.00118172 3.24624E-4 3.42385E-6 -9.80369E-11 -1.16786E-7 5.84653E-11 0.59 1.29 1.28 
1 0.181106 0.00193771 8.31813E-4 1.7357E-5 -8.78463E-10 -6.83579E-7 1.89154E-9 0.63 1.24 1.33 
1 0.165693 7.93809E-4 2.07343E-4 2.10175E-6 3.92189E-11 5.51866E-8 -1.96692E-11 1.03 1.19 1.88 
1 0.197838 0.00291579 0.00160826 3.18905E-5 -3.099E-9 -1.65002E-6 6.52351E-9 1.4 1.29 1.3 
1 0.167332 6.04133E-4 1.75019E-4 6.58899E-7 -3.97567E-12 7.39904E-9 5.85319E-12 0.92 1.21 1.36 
1 0.168189 6.9277E-4 3.08359E-4 2.4069E-6 -6.53948E-11 -6.2455E-8 -4.81222E-12 1.02 1.23 1.31 
1 0.176578 0.00134564 3.85271E-5 1.90354E-5 -8.18348E-11 6.77547E-7 -5.08959E-10 0.27 1.29 1.28 
1 0.177856 0.00184936 6.66828E-4 1.33159E-5 -4.74801E-10 -4.80427E-7 1.16147E-9 0.98 1.3 1.23 
1 0.170699 9.53026E-4 5.10137E-4 8.21549E-6 -2.85837E-10 -2.15936E-7 4.48517E-10 0.94 1.23 1.34 
1 0.181969 0.0022789 8.96342E-4 2.51807E-5 -1.28245E-9 -8.98358E-7 3.55902E-9 1.07 1.63 1.12 
1 0.207215 0.00279236 0.00188716 4.69559E-5 9.35554E-9 -6.50227E-7 1.03853E-8 0.91 1.33 1.24 
1 0.171326 0.00135737 4.97107E-4 9.03663E-6 -3.37453E-10 -2.76183E-7 5.0295E-10 0.8 1.29 1.29 
1 0.176725 0.00138621 7.3488E-4 1.05597E-5 -8.73727E-10 -3.88347E-7 3.19227E-10 1.48 1.23 1.34 
1 0.175783 7.05923E-4 2.70464E-4 5.012E-5 -1.95394E-9 -6.00017E-7 -5.49856E-9 1.79 1.18 1.35 
1 0.1703 0.00121626 4.36338E-4 7.5144E-6 -3.94765E-10 -2.59135E-7 1.71183E-10 1.13 1.29 1.3 
1 0.172327 0.00141359 5.26029E-4 9.95954E-6 -3.54904E-10 -3.14982E-7 6.27466E-10 2.2 1.28 1.28 
1 0.173254 0.00169802 4.64783E-4 9.83299E-6 -6.64521E-10 -4.02141E-7 -1.71548E-11 0.83 1.39 1.26 
1 0.174196 0.00120924 5.59285E-4 5.78314E-6 -8.19596E-11 -1.63777E-7 3.18523E-10 2.2 1.26 1.3 
1 0.169599 0.00104254 4.36521E-4 7.14194E-6 -1.46197E-10 -1.86058E-7 3.71009E-10 2.27 1.33 1.24 
1 0.177903 0.00153987 8.14546E-4 1.57621E-5 -9.94371E-10 -5.54064E-7 1.48357E-9 0.85 1.32 1.27 
1 0.172514 0.00147393 5.42081E-4 1.4368E-5 -8.03895E-10 -3.66832E-7 -9.80632E-10 1.08 1.26 1.35 
1 0.168282 0.00167986 1.43589E-4 1.65027E-6 -1.96383E-11 -6.12392E-8 -1.61142E-11 1.18 1.34 1.27 
1 0.171136 0.00161893 3.44107E-4 7.15246E-6 -1.98557E-10 -2.11264E-7 -2.94083E-10 2.06 1.34 1.28 
1 0.166992 0.00126195 1.08124E-4 2.22408E-9 -9.3699E-16 -7.8156E-11 5.58186E-16 2.04 1.3 1.29 
1 0.290915 0.0116245 0.00704625 6.95756E-5 4.84E-8 -1.61215E-7 5.53291E-9 0.71 1.32 1.33 
1 0.288554 0.0103832 0.00659217 6.64048E-5 1.40702E-8 4.12702E-6 -4.16213E-8 2.35 1.28 1.28 
1 0.239227 0.00467964 0.00371908 1.12899E-4 5.73864E-8 -1.82017E-6 4.53721E-8 2.24 1.28 1.28 
1 0.184708 0.00149238 0.00108486 1.6083E-5 -5.01625E-10 -4.98488E-7 2.06434E-9 1.79 1.2 1.32 
1 0.230492 0.0041048 0.00302241 4.95163E-5 -1.98122E-9 -2.50651E-6 1.9053E-8 1.25 1.27 1.32 
1 0.178369 0.00143852 7.47981E-4 1.43336E-5 5.26742E-10 -1.85748E-7 1.38753E-9 1.55 1.27 1.3 
1 0.196628 0.00248201 0.00151387 4.1356E-5 5.33546E-9 -7.14587E-7 8.86635E-9 1.07 1.52 0.62 
1 0.191537 0.00227121 0.00120459 3.40281E-5 6.37208E-9 7.92412E-8 2.61907E-9 0.87 1.23 1.38 
1 0.233833 0.00433845 0.00311167 7.66586E-5 3.6864E-8 6.78482E-7 6.54342E-9 0.25 1.28 1.28 
1 0.186138 0.00202898 9.54198E-4 1.8082E-5 1.01629E-9 -2.90251E-7 2.14674E-9 2.3 1.28 1.28 
1 0.224229 0.00402995 0.00261493 7.14036E-5 2.52566E-8 -5.43038E-7 1.77219E-8 0.73 1.32 1.29 
2 0.318552 0.0218511 3.47396E-4 0.00186597 -1.49927E-6 2.7318E-4 -9.61314E-8 2.35 1.28 1.28 
2 0.211499 0.00753025 1.50936E-4 1.37881E-4 -1.21289E-8 1.07795E-5 1.57651E-8 1.4 1.24 1.32 
2 0.229582 0.00846747 3.66839E-4 2.18177E-4 -5.52735E-8 1.85733E-5 2.74703E-8 2.34 1.28 1.28 
2 0.187647 0.00464015 4.85704E-4 1.79425E-6 -2.29851E-11 -1.16957E-7 -4.77205E-11 0.48 1.3 1.26 
2 0.181696 0.00354685 2.04399E-4 1.98152E-6 -3.29728E-11 -8.21047E-8 -2.24296E-11 0.66 1.31 1.26 
2 0.204323 0.00678105 2.53556E-4 6.29915E-5 -4.44353E-9 4.64741E-6 6.60533E-9 2.05 1.42 1.16 
2 0.211475 0.0078036 2.9693E-4 8.57526E-5 -5.64437E-9 6.4771E-6 1.24651E-8 0.88 1.29 1.54 
2 0.193332 0.00496308 3.84963E-4 7.47976E-6 2.34735E-10 5.89262E-8 3.25568E-10 2.01 1.33 1.26 
2 0.195505 0.0057116 3.84528E-4 8.30408E-6 9.05494E-11 2.42429E-7 4.60427E-10 0.46 1.3 1.26 
2 0.331151 0.0206117 0.00199405 9.37703E-4 -1.06745E-6 1.25135E-4 7.1039E-7 1.84 1.3 1.29 
2 0.292674 0.016186 6.48912E-4 0.0010308 -5.91538E-7 1.2279E-4 6.00676E-7 2.12 1.33 1.26 
2 0.316512 0.0199407 4.8003E-4 0.00178126 -1.63246E-6 2.50463E-4 -2.19248E-7 0.7 1.28 1.3 
2 0.398908 0.0314186 0.00105496 0.00481728 -8.99066E-6 8.29275E-4 6.09113E-6 1.35 1.3 1.26 
2 0.502703 0.0577367 0.00163518 0.0109382 -3.8671E-5 0.00262772 -2.53873E-5 0.35 1.27 1.29 
2 0.28671 0.0151852 4.66354E-4 0.00101339 -6.43179E-7 1.21668E-4 2.67707E-7 2.25 1.29 1.28 
2 0.318188 0.0197972 6.39804E-4 0.00169433 -1.56785E-6 2.34062E-4 8.08603E-7 1.4 1.19 1.36 
2 0.318159 0.0235017 0.00150466 0.00104351 -5.82768E-7 1.40052E-4 1.17052E-6 2.29 1.28 1.28 
2 0.328425 0.0265981 0.00154302 0.00120521 -1.21354E-6 1.81519E-4 1.1084E-6 2.22 1.3 1.28 
2 0.417147 0.0401337 0.00281825 0.00266768 -5.4332E-6 5.0113E-4 4.89732E-6 2.26 1.28 1.28 
2 0.4423 0.0481965 0.00368897 0.0031643 -8.9414E-6 6.60029E-4 6.07705E-6 0.41 1.3 1.27 
2 0.289378 0.0207156 0.00179589 3.13987E-4 -1.25592E-7 3.70529E-5 1.99547E-7 1.29 1.3 1.28 
2 0.308513 0.0245162 0.00174588 5.46225E-4 -2.96858E-7 7.40266E-5 4.43177E-7 0.65 1.26 1.29 
2 0.317897 0.0255279 0.00133555 0.00100065 -8.9745E-7 1.49452E-4 7.29886E-7 1.75 1.26 1.28 
2 0.255396 0.0134846 6.70501E-4 2.87884E-4 -8.86084E-8 2.95091E-5 9.02557E-8 1.26 1.31 1.29 
2 0.290731 0.0158475 1.25844E-4 5.57706E-4 4.57665E-8 1.33318E-5 1.40482E-7 0.74 1.28 1.28 
2 0.325931 0.0271673 0.0013057 0.0011511 -1.18335E-6 1.78293E-4 7.68897E-7 1.7 1.26 1.29 
2 0.33564 0.0284952 0.00114461 0.00154962 -1.93992E-6 2.53523E-4 7.04261E-7 2.24 1.28 1.28 
2 0.334493 0.0250367 0.00109925 0.00163889 -1.81283E-6 2.51487E-4 1.24601E-6 1.23 1.26 1.28 
2 0.344507 0.0262885 7.59422E-4 0.00253021 -3.10543E-6 4.00914E-4 1.63026E-6 1.62 1.3 1.27 
2 0.364839 0.0293903 0.00177378 0.00210114 -3.41229E-6 3.42809E-4 2.19314E-6 2.35 1.28 1.28 
2 0.370528 0.0322529 0.00178398 0.00239878 -4.27547E-6 4.15309E-4 2.51884E-6 0.43 1.27 1.29 
2 0.379784 0.0337925 8.51404E-4 0.0040259 -7.37334E-6 7.39199E-4 -1.09044E-6 2.34 1.28 1.26 
2 0.354525 0.0265771 9.68364E-4 0.00272817 -4.09352E-6 4.33105E-4 1.70478E-6 1.85 1.23 1.32 
2 0.375444 0.0358856 7.80736E-4 0.00389367 -6.78844E-6 7.28521E-4 -6.55428E-8 2.21 1.29 1.27 
2 0.318621 0.0200854 5.82242E-4 0.00176416 -1.4511E-6 2.37241E-4 1.04457E-6 1.76 1.24 1.27 
2 0.241394 0.00803675 4.637E-4 4.22572E-4 1.61643E-8 2.86284E-5 1.86355E-7 1.77 1.29 1.3 
2 0.230615 0.00782789 5.84423E-4 1.69768E-4 -8.67365E-9 1.02869E-5 5.27664E-8 1.88 1.08 1.38 
2 0.218356 0.00816062 6.28147E-4 6.75123E-5 6.75856E-9 1.57894E-6 1.21496E-8 2.35 1.27 1.28 
2 0.241131 0.0093664 0.00100256 2.44056E-4 -1.16063E-8 1.57348E-5 1.20163E-7 1.77 1.11 1.35 
2 0.210007 0.0058708 7.76396E-4 1.12775E-4 3.23972E-8 1.43421E-6 8.00032E-9 1.22 1.28 1.28 
2 0.249766 0.0112654 4.61137E-4 2.27236E-4 -7.06805E-8 2.20494E-5 2.03729E-8 2.14 1.29 1.28 
2 0.333355 0.0213824 6.48561E-4 0.0014903 -1.36999E-6 2.08222E-4 -5.19466E-7 2.2 1.29 1.28 
2 0.393871 0.0359561 0.00168449 0.0038363 -1.73865E-6 7.27051E-4 -9.59598E-6 1.45 1.25 1.3 
2 0.223114 0.00784224 6.47097E-4 1.05697E-4 7.1592E-9 4.36052E-6 2.66996E-8 2.32 1.28 1.28 
3 0.230686 0.0232821 1.79143E-4 1.34477E-4 2.08699E-8 2.0408E-5 -3.13129E-10 2.09 1.3 1.28 
3 0.197722 0.011944 1.82283E-5 6.37841E-6 6.54071E-11 4.34173E-7 2.12635E-11 1.89 1.24 1.32 
3 0.203878 0.0135099 5.22394E-5 2.34138E-5 8.16694E-10 2.6636E-6 5.94386E-11 0.85 1.14 2.01 
3 0.212487 0.0157577 1.89057E-4 5.49024E-5 4.63382E-9 1.98046E-6 -3.13286E-9 0.8 1.37 1.26 
3 0.209002 0.0155712 2.95405E-5 2.11935E-5 5.29796E-10 2.63682E-6 2.29028E-11 2.02 1.3 1.27 
3 0.194376 0.0107423 4.7155E-5 1.26754E-5 3.06954E-10 1.18645E-6 -4.25378E-11 1.75 1.3 1.31 
3 0.222499 0.0201836 1.86451E-4 9.6992E-5 1.30415E-8 1.35187E-5 -2.13431E-10 1.1 1.44 1.18 
3 0.22166 0.0207957 8.23255E-5 4.54321E-5 2.77523E-9 6.23563E-6 -1.34986E-10 1.83 1.39 1.23 
3 0.216545 0.0187605 6.51535E-5 3.90618E-5 1.9698E-9 5.21063E-6 -5.58882E-11 2.14 1.32 1.26 
3 0.216403 0.0188088 6.8876E-5 4.49701E-5 2.50273E-9 6.08521E-6 -1.23939E-11 0.82 1.33 1.28 
3 0.221826 0.0201656 9.92781E-5 6.82286E-5 5.61528E-9 9.68227E-6 2.75682E-11 2.33 1.2 1.29 
3 0.242456 0.0215303 7.90448E-4 7.6782E-5 -1.39335E-8 -4.6545E-6 1.27933E-8 1.79 1.27 1.31 
3 0.227344 0.0195602 2.5308E-4 1.09254E-4 1.80471E-8 1.50279E-5 -2.08451E-9 1.65 1.29 1.3 
3 0.229755 0.0184415 0.00104791 4.75429E-4 3.35576E-7 6.43942E-5 -3.38765E-10 1.55 1.29 1.29 
3 0.280478 0.02739 0.00281814 7.22027E-4 1.5499E-7 4.53654E-5 1.01821E-6 1.78 1.29 1.28 
3 0.224902 0.0197418 1.9658E-4 5.04524E-5 4.87672E-9 6.57667E-6 -1.20962E-9 2.26 1.28 1.28 
3 0.240873 0.0246822 2.93056E-4 1.96733E-4 4.72263E-8 3.06984E-5 1.05689E-9 0.6 1.31 1.29 
3 0.252151 0.0262476 8.87271E-4 7.46316E-4 6.07253E-7 1.19439E-4 -8.48959E-9 0.65 1.28 1.32 
3 0.271036 0.00216111 2.07174E-4 1.1325E-4 -2.93467E-9 1.82565E-6 1.70971E-8 0.58 1.31 1.29 
3 0.233647 3.72015E-4 8.58407E-4 2.37353E-5 2.29023E-9 -7.026E-8 -2.49661E-9 0.51 1.28 1.27 
3 0.226845 0.0208497 2.50716E-4 7.86634E-5 1.10355E-8 1.13534E-5 -5.07568E-10 1.41 1.2 1.32 
3 0.327262 0.0495949 0.00184546 0.00274488 6.06809E-6 6.09945E-4 -1.1594E-6 0.68 1.28 1.3 
3 0.238377 0.0253232 2.40781E-4 2.3275E-4 5.50886E-8 3.69437E-5 1.0798E-9 2.26 1.28 1.28 
3 0.242115 0.0262903 3.02476E-4 2.6583E-4 7.53705E-8 4.25485E-5 1.13733E-9 2.04 1.31 1.28 
3 0.340236 0.0421492 0.0077593 0.00586404 3.92653E-5 0.00120387 -4.78259E-6 2.1 1.28 1.29 
3 0.231474 0.00357165 0.00256193 6.53589E-4 7.82395E-7 3.89514E-5 -3.21167E-7 2.09 1.3 1.27 
3 0.236811 0.0260125 1.46746E-4 1.22424E-4 1.63866E-8 1.97436E-5 -8.58791E-10 1.0 1.26 1.3 
3 0.236099 0.0253368 1.91353E-4 1.38363E-4 2.25128E-8 2.19802E-5 -2.18669E-10 0.94 1.3 1.29 
3 0.240599 0.026951 2.46463E-4 1.88912E-4 4.07627E-8 3.10024E-5 -9.7464E-11 0.72 1.25 1.3 
3 0.221026 0.0197872 1.68924E-4 8.73432E-5 1.05942E-8 1.21631E-5 -5.65954E-10 0.92 1.25 1.32 
3 0.280624 0.0412154 1.75521E-4 1.4927E-4 2.4159E-8 2.74327E-5 -3.45869E-10 1.72 1.25 1.28 
3 0.214144 0.0169023 1.47794E-4 3.11932E-5 1.30674E-9 2.48876E-6 -1.66679E-9 1.65 1.26 1.28 
3 0.225446 0.021835 5.58899E-5 5.23189E-5 2.82876E-9 7.59575E-6 4.60952E-11 0.45 1.29 1.28 
3 0.237808 0.0251916 1.63985E-4 1.21434E-4 1.62477E-8 1.88182E-5 -5.44567E-9 0.93 1.31 1.26 
3 0.245161 0.0259527 3.16898E-4 2.42376E-4 6.71649E-8 3.85165E-5 1.0363E-9 0.56 1.27 1.29 
3 0.255541 0.0259556 6.49169E-4 5.0406E-4 2.88307E-7 8.10809E-5 -4.2788E-9 2.01 1.29 1.28 
3 0.253091 0.0277102 4.96981E-4 4.41453E-4 2.06733E-7 7.32768E-5 4.1322E-9 1.42 1.28 1.33 
3 0.246572 0.0268154 3.37244E-4 2.78801E-4 8.54356E-8 4.55803E-5 -3.03909E-9 1.61 1.32 1.26 
3 0.259672 0.0305971 4.54851E-4 4.29061E-4 1.89545E-7 7.50494E-5 -4.94604E-10 1.35 1.28 1.28 
3 0.366606 0.0407458 0.00877577 0.0052556 2.45204E-5 0.00105625 -2.59364E-5 2.31 1.27 1.28 
3 0.37096 0.0585881 0.00632997 0.00640009 3.86859E-5 0.0015489 -1.27605E-5 0.91 1.02 1.39 
3 0.280738 0.0369254 4.93369E-4 5.14571E-4 2.58534E-7 9.85943E-5 -1.95307E-8 0.53 1.28 1.28 
3 0.174235 0.00226146 2.73684E-4 1.78609E-5 1.24821E-9 8.27367E-7 3.73173E-11 1.98 1.32 1.27 
3 0.192344 0.00110345 1.06874E-5 2.02098E-7 -1.89359E-13 -5.20237E-9 -2.28827E-13 1.77 1.28 1.3 
3 0.235218 0.0198887 9.21285E-4 4.89441E-4 3.26887E-7 6.84462E-5 -3.40899E-8 1.43 1.32 1.29 
3 0.258098 0.0303658 4.22301E-4 3.89106E-4 1.5729E-7 6.77266E-5 1.17653E-8 2.15 1.29 1.28 
3 0.283751 0.0386909 5.89694E-4 6.60097E-4 4.11513E-7 1.29653E-4 1.63369E-8 2.04 1.3 1.27 
3 0.246106 0.0226994 0.00108141 6.02827E-4 4.86511E-7 9.07032E-5 -1.44352E-8 0.44 1.29 1.27 
3 0.408291 0.102018 0.00343016 0.00335113 1.12698E-5 8.72536E-4 1.44248E-6 2.24 1.24 1.32 
3 0.220639 0.0198933 1.5377E-4 8.26322E-5 9.30723E-9 1.1654E-5 3.68193E-10 1.72 1.31 1.28 
3 0.222347 0.0205136 2.63401E-4 1.33959E-4 2.51621E-8 1.91746E-5 2.38199E-10 0.81 1.33 1.3 
3 0.222555 0.0213549 1.58978E-4 6.97363E-5 7.33722E-9 1.01906E-5 2.83901E-10 1.19 1.28 1.29 
3 0.224162 0.02016 1.92457E-4 8.95929E-5 1.16927E-8 1.26812E-5 -1.29889E-9 1.67 1.11 1.36 
3 0.214559 0.0178884 8.43179E-5 4.98146E-5 3.21183E-9 6.47349E-6 -3.27297E-10 1.21 1.27 1.28 
3 0.219208 0.019933 1.21057E-4 5.41327E-5 4.34251E-9 7.44792E-6 -5.87926E-10 1.61 1.37 1.26 
3 0.330295 0.0351803 0.00443157 0.00561234 2.79856E-5 0.0010513 4.66749E-7 0.89 1.32 1.33 
4 0.213505 0.00892944 8.49807E-5 2.37674E-5 -9.72694E-10 -1.79701E-6 4.4138E-10 2.24 1.28 1.29 
4 0.209251 0.00838044 0.0012381 1.5171E-6 3.51848E-11 9.63539E-8 5.55442E-11 2.31 1.28 1.28 
4 0.208074 0.00845524 7.8422E-4 1.32172E-5 5.21758E-12 8.66982E-7 1.34563E-9 2.25 1.28 1.28 
4 0.255867 0.0163974 0.00124249 3.54957E-4 -1.51137E-7 4.44794E-5 1.80901E-7 2.31 1.28 1.28 
4 0.193641 0.00643484 6.58216E-4 2.79472E-6 -3.46393E-11 -2.24027E-7 -1.14751E-10 2.35 1.28 1.28 
4 0.185347 0.0045634 5.90206E-4 9.45038E-6 -5.22789E-10 -3.14078E-7 4.74164E-10 1.32 1.29 1.28 
4 0.225923 0.00937712 9.20789E-4 1.01318E-4 -3.0853E-8 9.80219E-6 2.40257E-9 2.25 1.28 1.28 
4 0.274443 0.0144072 8.26458E-4 0.00119633 -1.17045E-6 1.43223E-4 2.12351E-7 2.01 1.28 1.29 
4 0.221497 0.0101199 8.61789E-4 5.81532E-5 -1.00855E-8 5.59846E-6 8.23182E-9 2.33 1.28 1.28 
4 0.214617 0.00844963 7.02358E-4 5.14798E-5 -8.63518E-9 4.63531E-6 4.61047E-9 0.46 1.29 1.26 
4 0.233325 0.0110553 7.55321E-4 2.57384E-4 -8.87689E-8 2.6372E-5 7.07027E-8 0.68 1.28 1.26 
4 0.221327 0.00907596 6.45959E-4 1.32233E-4 -3.63668E-8 1.25367E-5 1.30774E-8 0.47 1.28 1.27 
4 0.220293 0.00982468 9.43078E-4 4.38589E-5 -8.72584E-9 4.34715E-6 1.85056E-9 2.35 1.28 1.28 
4 0.255083 0.0162894 0.00139533 2.18445E-4 -1.09297E-7 2.76775E-5 5.09782E-8 2.23 1.29 1.29 
4 0.185673 0.00412612 4.56242E-4 1.48121E-6 -4.56765E-13 3.42524E-8 3.85027E-11 1.07 1.26 1.32 
4 0.176392 0.00298192 1.77264E-4 5.45985E-7 1.42669E-12 -2.62227E-8 -5.1784E-12 0.85 1.25 1.33 
4 0.210171 0.00878958 7.45632E-4 3.34642E-5 2.42644E-9 1.66864E-6 4.69627E-9 1.7 1.32 1.3 
4 0.217591 0.0104573 0.00105747 2.84437E-5 4.88434E-9 -6.95198E-7 -6.91367E-10 2.35 1.28 1.28 
4 0.216659 0.0106872 0.00100425 3.79922E-5 7.35563E-9 -6.07364E-7 -9.82816E-10 0.61 1.29 1.22 
4 0.275081 0.0210202 0.00117915 0.00104688 4.83556E-7 1.34307E-4 1.05786E-6 0.65 1.3 1.23 
4 0.195541 0.00596779 7.30293E-4 1.43895E-5 -4.72485E-10 -2.08809E-8 1.39737E-9 2.28 1.28 1.28 
4 0.21233 0.0100198 0.00103919 9.48324E-6 8.40071E-11 -8.66743E-7 -9.37664E-10 2.23 1.28 1.29 
4 0.248722 0.00369524 0.00166044 5.09879E-5 1.44201E-8 -1.662E-6 -3.48792E-9 2.26 1.29 1.28 
4 0.233679 0.00539455 0.00445499 3.5032E-5 -1.30945E-8 2.52525E-6 4.47958E-9 1.83 1.24 1.29 
4 0.230332 0.0126596 0.00153499 1.22591E-5 1.5265E-9 6.90622E-8 7.05558E-10 2.25 1.28 1.28 
4 0.208308 0.00801141 9.52961E-4 4.44476E-6 2.26489E-10 6.71635E-8 1.79952E-10 1.02 1.19 1.39 
4 0.219204 0.0117576 9.86964E-4 2.96769E-5 1.43965E-9 1.49085E-6 4.8707E-9 2.24 1.29 1.28 
4 0.171736 0.00189881 3.31123E-4 7.79641E-7 1.16097E-11 3.31063E-8 -4.70453E-12 2.26 1.28 1.28 
4 0.224837 0.0112242 9.8811E-4 1.99216E-5 8.82682E-10 1.26711E-6 2.652E-9 1.04 1.28 1.32 
4 0.237336 0.015129 0.00174785 4.93729E-5 1.41296E-8 -1.55245E-6 -3.27388E-9 1.09 1.04 1.85 
4 0.21231 0.00842712 0.00115748 8.72418E-6 1.83333E-10 -6.8538E-7 -8.57302E-10 0.78 1.29 1.27 
4 0.183149 0.00450985 5.53675E-4 6.50212E-6 3.46341E-10 3.77246E-7 1.79583E-10 2.09 1.29 1.28 
4 0.197886 0.00747166 9.83828E-4 8.24269E-6 -1.43039E-10 7.97911E-8 7.2836E-10 0.5 1.27 1.29 
4 0.187542 0.00415306 3.35079E-4 6.78437E-7 -9.43427E-12 -3.24333E-8 -3.95342E-12 2.28 1.28 1.28 
4 0.223106 0.0110629 0.00118358 1.1333E-5 1.29967E-9 -2.68667E-7 1.8342E-10 2.17 1.29 1.28 
4 0.215267 0.00891136 0.00126086 3.42588E-5 1.84631E-9 1.74915E-6 6.87667E-9 1.69 1.28 1.28 
4 0.222572 0.0041529 6.65921E-4 3.24405E-4 4.87395E-8 -1.9324E-5 1.42685E-7 0.98 1.23 1.33 
4 0.184389 0.0035599 5.52784E-4 1.67658E-6 5.09509E-11 -4.1115E-8 -3.01782E-12 2.15 1.34 1.3 
4 0.1711 0.00209316 7.70645E-5 1.21064E-6 -1.14789E-11 5.52145E-8 2.23036E-12 2.33 1.28 1.28 
4 0.18153 0.00380587 2.42569E-4 2.94831E-6 -7.81762E-11 1.80512E-7 -1.02534E-11 2.24 1.35 1.24 
4 0.170214 0.0018284 2.01601E-4 1.49537E-7 -1.17399E-13 2.03125E-9 8.12613E-13 1.92 1.4 1.24 
4 0.174784 0.00327407 2.13135E-4 6.41509E-7 4.79205E-12 2.81057E-8 5.77101E-12 0.42 1.32 1.26 
4 0.530717 0.0619017 0.00515636 0.00768973 -8.00867E-6 1.36018E-4 4.77547E-5 2.2 1.29 1.27 
4 0.419848 0.0652185 0.00552424 0.00149675 -2.07656E-6 3.42016E-4 3.76977E-6 2.29 1.28 1.28 
4 0.458372 0.0456335 7.0845E-4 0.0110579 -2.37194E-5 0.00233701 1.98824E-5 0.55 1.29 1.19 
4 0.374837 0.052012 0.00480011 0.00119114 -1.31103E-6 2.45028E-4 2.52852E-6 1.3 1.22 1.32 
4 0.483779 0.0626459 0.00726252 0.00794307 -1.80586E-5 0.0019332 5.75628E-5 0.35 1.28 1.27 
5 0.264369 0.0413625 7.21335E-4 2.77227E-4 1.23645E-7 5.5014E-5 -8.99044E-9 2.2 1.28 1.29 
5 0.291112 0.0548169 9.44232E-4 3.52824E-4 2.03448E-7 8.22394E-5 -8.98984E-9 2.25 1.28 1.28 
5 0.268363 0.0435117 8.48235E-4 3.69272E-4 2.06653E-7 7.69827E-5 2.64787E-9 2.18 1.28 1.29 
5 0.283671 0.0501374 0.0020637 7.90777E-4 1.00918E-6 1.75606E-4 -4.52971E-8 2.25 1.27 1.28 
5 0.284825 0.0506476 0.00200069 7.51712E-4 9.20776E-7 1.67636E-4 -4.47968E-8 2.28 1.28 1.28 
5 0.232789 0.0273904 8.80527E-8 2.44931E-8 1.08356E-15 -3.53288E-9 3.46E-16 2.35 1.28 1.28 
5 0.242287 0.0312845 1.27415E-5 1.02232E-6 3.65077E-12 1.75567E-7 -5.34527E-13 1.73 1.21 1.35 
5 0.28557 0.0521396 1.30013E-4 4.34286E-5 3.26149E-9 9.88988E-6 1.0892E-10 0.55 1.34 1.26 
5 0.291481 0.0549795 0.00159571 7.74973E-4 8.61787E-7 1.81712E-4 -4.7609E-9 2.32 1.28 1.28 
5 0.311128 0.0596549 0.00548749 0.00217036 7.48999E-6 5.30084E-4 3.01036E-8 0.48 1.21 1.52 
5 0.289823 0.0541234 0.00199671 9.78198E-4 1.36626E-6 2.27031E-4 -4.76648E-8 0.66 1.24 1.32 
5 0.269151 0.0431251 0.0015503 5.98205E-4 5.75522E-7 1.22541E-4 2.5384E-8 2.3 1.28 1.28 
5 0.290771 0.0540541 0.0019786 8.57975E-4 1.117E-6 1.97854E-4 4.40344E-8 2.27 1.28 1.28 
5 0.298317 0.0521028 0.00534141 0.00212046 7.1349E-6 4.83999E-4 1.40966E-7 0.54 1.3 1.28 
5 0.277844 0.0466859 7.63857E-4 2.55385E-4 1.12771E-7 5.51678E-5 -2.43484E-9 2.14 1.3 1.28 
5 0.212493 0.0179251 6.29995E-5 1.16112E-5 3.13924E-10 1.5312E-6 -8.46171E-12 1.4 1.15 1.37 
5 0.316026 0.0388165 0.00230577 5.1262E-4 2.72332E-7 2.11266E-5 4.86247E-7 1.25 1.32 1.3 
5 0.344443 0.0646275 8.20017E-4 0.00306511 4.51065E-6 5.59879E-4 1.80766E-6 1.95 1.28 1.3 
5 0.262912 0.0412612 6.43039E-4 2.53902E-4 1.02583E-7 5.15295E-5 -1.4395E-9 1.62 1.28 1.27 
5 0.236983 0.0294406 9.76821E-5 2.53728E-5 1.23926E-9 4.02255E-6 -2.44572E-10 2.01 1.32 1.3 
5 0.271559 0.0458175 6.81799E-4 2.82599E-4 1.24044E-7 6.04882E-5 7.66217E-10 1.23 1.26 1.32 
5 0.295262 0.0576804 8.78342E-4 3.60034E-4 2.02383E-7 8.63126E-5 -5.72726E-9 2.13 1.29 1.28 
5 0.274436 0.0474909 5.4285E-4 2.32581E-4 8.26391E-8 5.06831E-5 -7.2804E-10 2.19 0.7 1.33 
5 0.298607 0.0600012 9.47573E-4 4.40946E-4 2.84974E-7 1.07801E-4 -5.40794E-9 1.24 1.3 1.3 
5 0.217696 0.0206022 3.64807E-5 4.59433E-6 5.58485E-11 5.6748E-7 2.04627E-11 2.26 1.28 1.28 
5 0.208462 0.016726 7.4442E-5 9.58188E-6 1.94933E-10 9.5932E-7 1.65803E-10 2.31 1.28 1.28 
5 0.293634 0.0569905 0.00165956 8.25042E-4 9.64519E-7 1.94646E-4 -4.14149E-8 2.2 1.28 1.29 
5 0.287165 0.0541613 0.00110103 5.35928E-4 4.11663E-7 1.24708E-4 -3.77158E-9 2.33 1.28 1.28 
5 0.230576 0.0259239 2.4131E-5 5.27483E-7 1.86937E-12 8.43425E-8 2.16939E-13 1.83 1.35 1.32 
5 0.279409 0.0496712 2.39852E-4 1.10703E-4 1.8035E-8 2.45127E-5 -3.75367E-10 0.57 1.3 1.27 
5 0.268248 0.0442622 9.79928E-5 4.86087E-5 3.35449E-9 1.00921E-5 -4.65269E-11 1.18 1.26 1.26 
5 0.270249 0.029876 0.00184112 1.22668E-5 -1.72994E-9 -1.57057E-6 6.36962E-10 2.22 1.29 1.28 
5 0.324296 0.0695159 2.07563E-4 5.69431E-4 1.89451E-7 1.49697E-4 4.9321E-8 2.18 1.29 1.28 
5 0.251437 0.0351892 0.00100277 3.78228E-4 2.32905E-7 7.09354E-5 -3.59818E-9 1.27 1.33 1.28 
5 0.268836 0.0434447 0.00140662 5.91238E-4 5.39177E-7 1.23234E-4 -1.41213E-9 0.81 1.26 1.3 
5 0.26182 0.0154914 0.00438826 7.10375E-4 5.31724E-7 -8.28571E-5 -1.13594E-6 1.05 1.23 1.33 
5 0.266886 0.0432546 3.05019E-4 1.31265E-4 2.62161E-8 2.69728E-5 1.61015E-9 0.73 1.29 1.32 
5 0.252013 0.036533 3.5067E-4 1.45699E-4 3.28048E-8 2.75099E-5 -2.90522E-9 2.2 1.35 1.24 
5 0.264394 0.041921 5.73907E-4 2.97049E-4 1.22632E-7 6.07527E-5 2.04445E-9 1.79 1.43 1.22 
5 0.283813 0.0516094 9.83249E-4 5.37308E-4 3.90484E-7 1.22006E-4 6.69968E-9 0.78 1.25 1.32 
5 0.433714 0.124464 0.00352621 0.00107197 1.82904E-6 2.90292E-4 9.9912E-7 0.85 1.24 1.37 
5 0.45588 0.179165 0.00238919 0.00139752 2.53657E-6 5.54395E-4 -2.94976E-7 1.5 1.28 1.26 
5 0.389312 0.0981832 0.00126502 3.71503E-4 2.45381E-7 1.07049E-4 6.81874E-8 2.01 1.3 1.27 
5 0.338735 0.075777 0.00880834 0.00507389 3.39179E-5 0.00139363 -4.00589E-7 2.26 1.28 1.28 
5 0.422645 0.117681 0.0176958 0.0107392 1.48026E-4 0.00364952 -2.31802E-6 2.21 1.28 1.29 
5 0.329444 0.0703726 0.00658363 0.00319055 1.46228E-5 8.41867E-4 -2.03867E-8 2.23 1.27 1.29 
5 0.35416 0.0828451 0.0088468 0.00517533 3.50188E-5 0.0014762 2.56457E-9 0.29 1.29 1.28 
5 0.340024 0.0493694 0.00155751 0.00121278 1.47863E-6 -1.78712E-4 7.69352E-7 1.83 1.27 1.26 
5 0.304231 0.0596833 0.00449283 0.0020653 6.28925E-6 5.03718E-4 -1.57136E-7 0.73 1.29 1.32 
5 0.296289 0.0588145 8.62506E-4 3.89849E-4 2.26034E-7 9.44791E-5 3.47548E-9 2.1 1.28 1.29 
5 0.311824 0.0280751 0.00391624 8.12334E-4 -1.17778E-7 -1.14785E-4 -1.4441E-6 2.17 1.27 1.29 
5 0.310307 0.0235667 0.00392402 9.27189E-4 2.01848E-7 -1.34149E-4 -1.757E-6 2.21 1.27 1.3 
5 0.29235 0.0526972 0.0042884 0.00171983 4.66322E-6 3.93377E-4 2.62656E-7 2.1 1.3 1.28 
